svm_type c_svc
kernel_type rbf
gamma 0.0416667
nr_class 4
total_sv 478
rho -0.0595926 -0.0241551 -0.147073 -0.349791 -0.329931 -0.19399
label 0 1 2 3
nr_sv 160 135 69 114
SV
0 0 1 1:0.0182675 2:0.0651933 3:0.0608936 4:0.0269587 5:0.0623859 6:0.0114558 7:0.0163498 8:0.0236062 9:0.0191056 10:0.0726355 11:0.0552319 12:0.025465 13:0.0441877 14:0.0128367 15:0.0191848 16:0.0252043 17:0.024 18:0.0886076 19:0.0887097 20:0.0245902 21:0.0681818 22:0.0238095 23:0.015873 24:0.017094 
0 0 1 1:0.00883912 2:0.0657459 3:0.110771 4:0.0522324 5:0.0862385 6:0.0100587 7:0.0209126 8:0.0366649 9:0.015783 10:0.0675525 11:0.113106 12:0.0860494 13:0.063369 14:0.0130685 15:0.0244979 16:0.0347262 17:0.008 18:0.126582 19:0.153226 20:0.0983607 21:0.0909091 22:0.0238095 23:0.0238095 24:0.042735 
0 1 1 1:0.0188568 2:0.0773479 3:0.172277 4:0.0442292 5:0.0697254 6:0.00977935 7:0.0148289 8:0.0306378 9:0.025736 10:0.0901041 11:0.33343 12:0.0557582 13:0.0626542 14:0.00868064 15:0.0198872 16:0.0284125 17:0.032 18:0.164557 19:0.709677 20:0.057377 21:0.0681818 22:0.015873 23:0.015873 24:0.034188 
0 1 0 1:0.0144373 2:0.0779006 3:0.126071 4:0.0471777 5:0.0642202 6:0.0106175 7:0.0212929 8:0.0291312 9:0.0228297 10:0.0568911 11:0.177966 12:0.0609568 13:0.0596304 14:0.0123394 15:0.0181787 16:0.0302268 17:0.024 18:0.101266 19:0.298387 20:0.0901639 21:0.0681818 22:0.015873 23:0.015873 24:0.034188 
0 1 0 1:0.0218032 2:0.0558012 3:0.106793 4:0.038332 5:0.0495413 6:0.00977935 7:0.0220534 8:0.0271222 9:0.025688 10:0.0442546 11:0.194099 12:0.0579169 13:0.0552255 14:0.0161144 15:0.0190182 16:0.0309574 17:0.04 18:0.0886076 19:0.306452 20:0.0737705 21:0.0681818 22:0.0238095 23:0.0238095 24:0.034188 
0 0 1 1:0.0226872 2:0.0723757 3:0.0774174 4:0.0450717 5:0.0770648 6:0.0103382 7:0.0163498 8:0.0301357 9:0.0292854 10:0.056019 11:0.132912 12:0.0468856 13:0.0597095 14:0.0190578 15:0.0196545 16:0.0335533 17:0.032 18:0.0886076 19:0.201613 20:0.0655738 21:0.0681818 22:0.0238095 23:0.015873 24:0.034188 
0 0 1 1:0.0147319 2:0.0718231 3:0.0899632 4:0.0210615 5:0.0660556 6:0.00977935 7:0.0186312 8:0.0266197 9:0.0172007 10:0.0781149 11:0.113565 12:0.0134544 13:0.0267461 14:0.0161144 15:0.0197858 16:0.0334663 17:0.024 18:0.126582 19:0.169355 20:0.0163934 21:0.0454545 22:0.031746 23:0.0238095 24:0.034188 
0 0 1 1:0.0114909 2:0.0784529 3:0.0624234 4:0.0454928 5:0.0256887 6:0.00866172 7:0.0201521 8:0.0226017 9:0.0162463 10:0.051462 11:0.0715973 12:0.0534228 13:0.0463145 14:0.0135426 15:0.024563 16:0.0319947 17:0.016 18:0.0759494 19:0.112903 20:0.0901639 21:0.0909091 22:0.0238095 23:0.031746 24:0.025641 
0 0 1 1:0.0218032 2:0.0723757 3:0.0722154 4:0.0395956 5:0.0495413 6:0.0106175 7:0.0239544 8:0.0231041 9:0.0165454 10:0.0591517 11:0.078327 12:0.0448563 13:0.0409894 14:0.0127506 15:0.0313639 16:0.0251825 17:0.016 18:0.0886076 19:0.0967742 20:0.0491803 21:0.0454545 22:0.0238095 23:0.031746 24:0.025641 
0 0 1 1:0.0156159 2:0.0701658 3:0.0480417 4:0.0332773 5:0.047707 6:0.0100587 7:0.0186312 8:0.0251131 9:0.0225229 10:0.0857342 11:0.0696051 12:0.0363487 13:0.051903 14:0.0157912 15:0.0241977 16:0.0320529 17:0.032 18:0.164557 19:0.120968 20:0.0409836 21:0.0681818 22:0.0238095 23:0.0238095 24:0.042735 
0 0 1 1:0.0164997 2:0.0552485 3:0.0939413 4:0.0320134 5:0.0660556 6:0.0131322 7:0.0186312 8:0.0321448 9:0.0198637 10:0.0428113 11:0.135824 12:0.0350931 13:0.0538047 14:0.00985018 15:0.0211588 16:0.0336442 17:0.024 18:0.0632911 19:0.217742 20:0.0245902 21:0.0454545 22:0.015873 23:0.0238095 24:0.034188 
0 0 1 1:0.0238657 2:0.0828728 3:0.0896573 4:0.0244313 5:0.0458716 6:0.0111763 7:0.0155894 8:0.0376695 9:0.0255225 10:0.0875895 11:0.109416 12:0.0270897 13:0.0296599 14:0.0173939 15:0.0204779 16:0.0371585 17:0.032 18:0.113924 19:0.16129 20:0.0327869 21:0.0454545 22:0.0238095 23:0.015873 24:0.034188 
0 0 1 1:0.0135533 2:0.062431 3:0.0556915 4:0.0442292 5:0.053211 6:0.0117351 7:0.021673 8:0.0226017 9:0.0220202 10:0.0567526 11:0.0915927 12:0.0567624 13:0.0511938 14:0.0116074 15:0.0213832 16:0.0299746 17:0.024 18:0.0759494 19:0.153226 20:0.0655738 21:0.0681818 22:0.0238095 23:0.0238095 24:0.034188 
0 0 1 1:0.0144373 2:0.0823205 3:0.0514075 4:0.0328559 5:0.0678899 6:0.0111763 7:0.0178707 8:0.0296333 9:0.0169066 10:0.0596514 11:0.0704849 12:0.0402987 13:0.0476737 14:0.0144078 15:0.0246021 16:0.0382927 17:0.016 18:0.0886076 19:0.0887097 20:0.0327869 21:0.0909091 22:0.0238095 23:0.0238095 24:0.034188 
0 0 1 1:0.0141426 2:0.0453038 3:0.0305997 4:0.0219039 5:0.0587162 6:0.00782341 7:0.0125475 8:0.0226017 9:0.0173512 10:0.0527912 11:0.0268348 12:0.0315442 13:0.0486981 14:0.00943106 15:0.0224876 16:0.0262606 17:0.024 18:0.101266 19:0.0403226 20:0.057377 21:0.0454545 22:0.015873 23:0.0238095 24:0.042735 
0 0 1 1:0.013848 2:0.0530386 3:0.0553856 4:0.0370682 5:0.0899083 6:0.00922054 7:0.0193916 8:0.0341538 9:0.0181499 10:0.0692779 11:0.075233 12:0.0449489 13:0.0875195 14:0.0116437 15:0.0233377 16:0.0296162 17:0.016 18:0.126582 19:0.104839 20:0.0491803 21:0.113636 22:0.015873 23:0.031746 24:0.025641 
1 0 1 1:0.0167944 2:0.0640883 3:0.0312117 4:0.0408594 5:0.188991 6:0.0100587 7:0.0220534 8:0.0286288 9:0.0207876 10:0.0519317 11:0.057282 12:0.0571859 13:0.183692 14:0.0138683 15:0.0160591 16:0.035669 17:0.016 18:0.0632911 19:0.129032 20:0.057377 21:0.204545 22:0.015873 23:0.015873 24:0.0598291 
1 0 1 1:0.0109017 2:0.0629833 3:0.0458996 4:0.05139 5:0.141284 6:0.0145292 7:0.0186312 8:0.0356604 9:0.0118404 10:0.0480498 11:0.055346 12:0.0589435 13:0.132975 14:0.0157912 15:0.0197858 16:0.0242167 17:0.016 18:0.101266 19:0.0645161 20:0.0983607 21:0.227273 22:0.015873 23:0.0238095 24:0.025641 
0 0 1 1:0.0120802 2:0.0618783 3:0.0495716 4:0.0547598 5:0.174312 6:0.0100587 7:0.0144488 8:0.0210951 9:0.016578 10:0.0599405 11:0.0637935 12:0.0691239 13:0.106959 14:0.0105453 15:0.0246377 16:0.0244432 17:0.016 18:0.113924 19:0.0967742 20:0.0901639 21:0.113636 22:0.015873 23:0.0238095 24:0.025641 
0 0 1 1:0.0147319 2:0.0690608 3:0.0514075 4:0.0568661 5:0.132111 6:0.0125734 7:0.0231939 8:0.0336514 9:0.0207581 10:0.0624846 11:0.0551152 12:0.0656252 13:0.0866499 14:0.00987827 15:0.0211022 16:0.0297654 17:0.032 18:0.101266 19:0.0645161 20:0.0819672 21:0.113636 22:0.015873 23:0.0238095 24:0.025641 
0.5615202634457169 0 1 1:0.0162051 2:0.0696131 3:0.0547736 4:0.0518114 5:0.154129 6:0.0114558 7:0.0212929 8:0.0306378 9:0.027039 10:0.0571394 11:0.0532769 12:0.0440043 13:0.126804 14:0.0115907 15:0.0276749 16:0.027347 17:0.04 18:0.0759494 19:0.0887097 20:0.057377 21:0.113636 22:0.0238095 23:0.0238095 24:0.025641 
0 0 1 1:0.0197408 2:0.0563535 3:0.0434516 4:0.0332773 5:0.100917 6:0.0134116 7:0.0220534 8:0.0215972 9:0.024373 10:0.0401139 11:0.0715064 12:0.0313903 13:0.0884484 14:0.0140161 15:0.0190182 16:0.0245006 17:0.032 18:0.0632911 19:0.120968 20:0.0245902 21:0.159091 22:0.031746 23:0.0238095 24:0.034188 
0 0 1 1:0.0126695 2:0.063536 3:0.0400857 4:0.0488626 5:0.0788991 6:0.00894104 7:0.0174906 8:0.0251131 9:0.0129468 10:0.0387449 11:0.0630101 12:0.0352215 13:0.0986527 14:0.0147947 15:0.0206739 16:0.0305456 17:0.016 18:0.0506329 19:0.0806452 20:0.0327869 21:0.0909091 22:0.0238095 23:0.0238095 24:0.025641 
0 0 0.1210193621411274 1:0.012964 2:0.0646409 3:0.0388617 4:0.0484415 5:0.154129 6:0.0148087 7:0.0182511 8:0.0261176 9:0.0149196 10:0.0524891 11:0.0467589 12:0.0502922 13:0.116979 14:0.0153645 15:0.019782 16:0.0240514 17:0.016 18:0.0632911 19:0.0887097 20:0.0901639 21:0.113636 22:0.0238095 23:0.0238095 24:0.025641 
0 0 1 1:0.0141426 2:0.061326 3:0.0406977 4:0.0459141 5:0.108257 6:0.0148087 7:0.019772 8:0.0281267 9:0.0162257 10:0.0510505 11:0.0431331 12:0.0601135 13:0.0759548 14:0.0164837 15:0.0262187 16:0.0282764 17:0.016 18:0.0759494 19:0.0564516 20:0.0819672 21:0.0681818 22:0.0238095 23:0.0396825 24:0.0512821 
0 0 1 1:0.0164997 2:0.0486187 3:0.0253979 4:0.0286436 5:0.0788991 6:0.0136911 7:0.0110266 8:0.0266197 9:0.026948 10:0.0514725 11:0.0246291 12:0.0312743 13:0.0746636 14:0.0119592 15:0.0147563 16:0.030486 17:0.024 18:0.0759494 19:0.0564516 20:0.0409836 21:0.113636 22:0.0238095 23:0.0238095 24:0.034188 
1 1 1 1:0.0757219 2:0.157458 3:0.369338 4:0.0901431 5:0.104587 6:0.010897 7:0.0520913 8:0.0793571 9:0.126214 10:0.134172 11:0.526363 12:0.122382 13:0.128035 14:0.0159051 15:0.144081 16:0.0993734 17:0.16 18:0.164557 19:0.669355 20:0.180328 21:0.159091 22:0.031746 23:0.261905 24:0.111111 
0 1 0.8789806378588727 1:0.0486153 2:0.0966851 3:0.218177 4:0.0471777 5:0.053211 6:0.00698528 7:0.0106465 8:0.0251131 9:0.08061 10:0.11411 11:0.293419 12:0.0797247 13:0.0643747 14:0.00859322 15:0.0222929 16:0.0246555 17:0.104 18:0.189873 19:0.451613 20:0.106557 21:0.0681818 22:0.015873 23:0.0238095 24:0.025641 
0 1 0 1:0.0220979 2:0.0928175 3:0.214505 4:0.0745577 5:0.053211 6:0.00614697 7:0.00950571 8:0.0140634 9:0.0406999 10:0.0975134 11:0.367908 12:0.117294 13:0.0814391 14:0.00292294 15:0.0134683 16:0.0150648 17:0.056 18:0.126582 19:0.604839 20:0.147541 21:0.136364 22:0.00793651 23:0.015873 24:0.017094 
0 1 0 1:0.0285799 2:0.0856354 3:0.177785 4:0.0556023 5:0.0733951 6:0.00530883 7:0.00760469 8:0.0220996 9:0.053867 10:0.0714344 11:0.264174 12:0.0724916 13:0.073514 14:0.00712623 15:0.0105385 16:0.0172515 17:0.104 18:0.0759494 19:0.395161 20:0.0819672 21:0.0681818 22:0.015873 23:0.00793651 24:0.025641 
0 1 0 1:0.0215086 2:0.112155 3:0.118421 4:0.062342 5:0.0385321 6:0.00642646 7:0.00760469 8:0.017077 9:0.0350949 10:0.10123 11:0.19567 12:0.0956032 13:0.063325 14:0.00634695 15:0.0128714 16:0.0188249 17:0.04 18:0.151899 19:0.314516 20:0.139344 21:0.0909091 22:0.00793651 23:0.015873 24:0.017094 
0 0 1 1:0.0203301 2:0.0911602 3:0.0957772 4:0.040438 5:0.047707 6:0.00754409 7:0.00836515 8:0.019086 9:0.0308702 10:0.126505 11:0.135048 12:0.0460778 13:0.0372388 14:0.00434319 15:0.0085848 16:0.0211863 17:0.048 18:0.253165 19:0.16129 20:0.057377 21:0.0227273 22:0.00793651 23:0.00793651 24:0.025641 
0 0 1 1:0.0159104 2:0.0966851 3:0.0740513 4:0.0349622 5:0.0348624 6:0.00698528 7:0.00988606 8:0.0205926 9:0.0259179 10:0.100732 11:0.0860695 12:0.0464677 13:0.0340564 14:0.00764383 15:0.0158014 16:0.0177059 17:0.032 18:0.177215 19:0.129032 20:0.057377 21:0.0454545 22:0.015873 23:0.015873 24:0.017094 
0 0 1 1:0.0188568 2:0.0944751 3:0.0260099 4:0.0286436 5:0.0587162 6:0.00391171 7:0.0102662 8:0.0140634 9:0.033415 10:0.0889729 11:0.036932 12:0.0354774 13:0.0371301 14:0.00604879 15:0.0121829 16:0.016423 17:0.04 18:0.164557 19:0.0403226 20:0.0327869 21:0.0227273 22:0.015873 23:0.0238095 24:0.025641 
0 1 0 1:0.0259281 2:0.100552 3:0.129131 4:0.0732939 5:0.0697254 6:0.00670578 7:0.00760469 8:0.017077 9:0.0526781 10:0.124752 11:0.169425 12:0.0715358 13:0.0461135 14:0.0060008 15:0.0123039 16:0.0119812 17:0.072 18:0.177215 19:0.322581 20:0.0655738 21:0.0454545 22:0.015873 23:0.00793651 24:0.025641 
0 1 1 1:0.0276959 2:0.156906 3:0.274786 4:0.100674 5:0.0642202 6:0.00614697 7:0.0121674 8:0.017077 9:0.0389375 10:0.180711 11:0.46128 12:0.11089 13:0.107357 14:0.0125457 15:0.0191957 16:0.0188249 17:0.048 18:0.253165 19:0.701613 20:0.0983607 21:0.113636 22:0.0238095 23:0.0238095 24:0.025641 
0 1 1 1:0.0253388 2:0.134806 3:0.372094 4:0.113732 5:0.053211 6:0.00838223 7:0.0155894 8:0.0110499 9:0.037409 10:0.134857 11:0.455653 12:0.124135 13:0.0615573 14:0.0138561 15:0.0166358 16:0.0162556 17:0.04 18:0.265823 19:0.596774 20:0.122951 21:0.0909091 22:0.031746 23:0.015873 24:0.034188 
0 1 0 1:0.0164997 2:0.101105 3:0.310281 4:0.0909856 5:0.0715596 6:0.00670578 7:0.00608365 8:0.0210951 9:0.0244936 10:0.119452 11:0.41847 12:0.108616 13:0.0508556 14:0.0102705 15:0.00870575 16:0.0151079 17:0.032 18:0.202532 19:0.604839 20:0.131148 21:0.0454545 22:0.015873 23:0.015873 24:0.017094 
0 1 0 1:0.0147319 2:0.110497 3:0.279376 4:0.0821399 5:0.0587162 6:0.0041912 7:0.0091256 8:0.0150679 9:0.0237303 10:0.113767 11:0.366415 12:0.10737 13:0.054839 14:0.00678608 15:0.0138077 16:0.00547278 17:0.024 18:0.21519 19:0.596774 20:0.0983607 21:0.0909091 22:0.00793651 23:0.015873 24:0.017094 
0 1 0 1:0.0162051 2:0.125414 3:0.222154 4:0.100253 5:0.0440373 6:0.00223526 7:0.00684423 8:0.00904083 9:0.0233161 10:0.127616 11:0.265923 12:0.0926363 13:0.0254167 14:0.00495503 15:0.0150836 16:0.00828656 17:0.04 18:0.177215 19:0.354839 20:0.131148 21:0.0227273 22:0.00793651 23:0.0238095 24:0.00854701 
0 1 0 1:0.0156159 2:0.111602 3:0.216034 4:0.0909856 5:0.0697254 6:0.00698528 7:0.00950571 8:0.0185836 9:0.0180364 10:0.138004 11:0.278258 12:0.113874 13:0.0708757 14:0.00812244 15:0.0161273 16:0.0172976 17:0.016 18:0.202532 19:0.306452 20:0.147541 21:0.0909091 22:0.015873 23:0.0238095 24:0.017094 
0 1 0 1:0.0117855 2:0.116575 3:0.204407 4:0.082561 5:0.0458716 6:0.00866172 7:0.00380228 8:0.0130589 9:0.019161 10:0.119035 11:0.27174 12:0.106728 13:0.0315095 14:0.0114848 15:0.00780678 16:0.0145879 17:0.04 18:0.177215 19:0.306452 20:0.139344 21:0.0681818 22:0.015873 23:0.00793651 24:0.017094 
0 1 0 1:0.0135533 2:0.0839778 3:0.147185 4:0.0636058 5:0.0568807 6:0.00586765 7:0.0079848 8:0.00452033 9:0.0226792 10:0.0909484 11:0.278639 12:0.0985105 13:0.063369 14:0.00844691 15:0.0108069 16:0.0098917 17:0.04 18:0.139241 19:0.596774 20:0.131148 21:0.0681818 22:0.015873 23:0.00793651 24:0.017094 
0 1 0 1:0.0159104 2:0.0828728 3:0.164933 4:0.0758213 5:0.0366978 6:0.00307348 7:0.00646388 8:0.0110499 9:0.0230863 10:0.0922693 11:0.285282 12:0.0888616 13:0.0495809 14:0.00249777 15:0.0120569 16:0.0112792 17:0.024 18:0.126582 19:0.596774 20:0.0737705 21:0.0454545 22:0.00793651 23:0.00793651 24:0.00854701 
0 1 0 1:0.0147319 2:0.0889503 3:0.244491 4:0.0951978 5:0.0605505 6:0.00391171 7:0.00228137 8:0.00954293 9:0.015299 10:0.0912944 11:0.33996 12:0.106426 13:0.0534863 14:0.00604879 15:0.011799 16:0.0186509 17:0.016 18:0.151899 19:0.620968 20:0.106557 21:0.0454545 22:0.015873 23:0.00793651 24:0.025641 
0 1 0 1:0.00530347 2:0.0823205 3:0.130049 4:0.0690816 5:0.047707 6:0.00475002 7:0.00684423 8:0.0110499 9:0.00984725 10:0.0901462 11:0.167174 12:0.0723194 13:0.0439835 14:0.00672377 15:0.00996564 16:0.00973853 17:0.016 18:0.177215 19:0.33871 20:0.0737705 21:0.0454545 22:0.00793651 23:0.00793651 24:0.00854701 
0 1 0 1:0.0147319 2:0.103315 3:0.167993 4:0.0749788 5:0.0825688 6:0.00754409 7:0.00494297 8:0.0160725 9:0.0204154 10:0.0913668 11:0.264327 12:0.098183 13:0.0622666 14:0.00541363 15:0.0102008 16:0.0123507 17:0.024 18:0.126582 19:0.427419 20:0.131148 21:0.0909091 22:0.015873 23:0.00793651 24:0.017094 
0 1 0 1:0.0141426 2:0.075138 3:0.139229 4:0.089722 5:0.0623859 6:0.00363239 7:0.0053232 8:0.017077 9:0.021906 10:0.0740554 11:0.201061 12:0.107502 13:0.0623885 14:0.00474992 15:0.0080136 16:0.0168805 17:0.032 18:0.151899 19:0.379032 20:0.139344 21:0.0681818 22:0.00793651 23:0.00793651 24:0.017094 
0 1 0 1:0.0126695 2:0.105525 3:0.133721 4:0.0846672 5:0.0715596 6:0.00558815 7:0.0102662 8:0.0110499 9:0.0157439 10:0.10566 11:0.214652 12:0.119818 13:0.0695493 14:0.00731383 15:0.0110124 16:0.0169218 17:0.016 18:0.151899 19:0.330645 20:0.139344 21:0.0909091 22:0.00793651 23:0.00793651 24:0.017094 
1 0 0 1:0.0126695 2:0.0745857 3:0.0697674 4:0.101938 5:0.0752294 6:0.00670578 7:0.00874525 8:0.0110499 9:0.0208089 10:0.0742203 11:0.0966056 12:0.146684 13:0.0681571 14:0.00749638 15:0.010105 16:0.00468968 17:0.016 18:0.101266 19:0.185484 20:0.229508 21:0.0909091 22:0.015873 23:0.00793651 24:0.00854701 
1 0 0 1:0.00589275 2:0.037569 3:0.0425337 4:0.104465 5:0.0330281 6:0.00754409 7:0.0091256 8:0.00954293 9:0.0143246 10:0.0219565 11:0.0417681 12:0.158596 13:0.0352659 14:0.00541363 15:0.00780678 16:0.0146587 17:0.016 18:0.0379747 19:0.0564516 20:0.245902 21:0.0454545 22:0.00793651 23:0.00793651 24:0.017094 
1 0 0 1:0.0353565 2:0.0895026 3:0.0740513 4:0.119208 5:0.0697254 6:0.00502934 7:0.00836515 8:0.0195881 9:0.0657929 10:0.0887168 11:0.0928399 12:0.152272 13:0.0773843 14:0.00975564 15:0.0144514 16:0.0175224 17:0.088 18:0.101266 19:0.129032 20:0.221311 21:0.0909091 22:0.015873 23:0.015873 24:0.017094 
1 0 0 1:0.0568651 2:0.11105 3:0.117503 4:0.111626 5:0.0587162 6:0.00447052 7:0.0079848 8:0.0140634 9:0.0853396 10:0.105946 11:0.147608 12:0.14764 13:0.054839 14:0.00797748 15:0.013121 16:0.0136628 17:0.088 18:0.139241 19:0.185484 20:0.221311 21:0.0681818 22:0.015873 23:0.00793651 24:0.017094 
1 0 0 1:0.0220979 2:0.109945 3:0.0835373 4:0.0703454 5:0.0495413 6:0.00475002 7:0.00456274 8:0.0125565 9:0.0513289 10:0.12565 11:0.109651 12:0.111002 13:0.0581789 14:0.00297273 15:0.0122322 16:0.0177059 17:0.096 18:0.227848 19:0.120968 20:0.147541 21:0.0909091 22:0.00793651 23:0.015873 24:0.034188 
0 0 1 1:0.0111962 2:0.0944751 3:0.0795593 4:0.0501264 5:0.0825688 6:0.0117351 7:0.00570343 8:0.00803615 9:0.0177539 10:0.127095 11:0.121857 12:0.0587647 13:0.0757539 14:0.0159663 15:0.0120389 16:0.00574811 17:0.024 18:0.240506 19:0.209677 20:0.0491803 21:0.113636 22:0.031746 23:0.00793651 24:0.00854701 
1 0 0 1:0.0633471 2:0.138121 3:0.115667 4:0.0741364 5:0.0678899 6:0.00558815 7:0.00722434 8:0.0145655 9:0.101231 10:0.135176 11:0.171273 12:0.0943649 13:0.0654166 14:0.00631926 15:0.010863 16:0.0138904 17:0.112 18:0.151899 19:0.266129 20:0.180328 21:0.0681818 22:0.015873 23:0.00793651 24:0.025641 
1 0 0 1:0.0763112 2:0.0955801 3:0.0847613 4:0.0602359 5:0.0348624 6:0.0041912 7:0.0026616 8:0.0150679 9:0.118374 10:0.10653 11:0.119775 12:0.0708328 13:0.0459247 14:0.00304493 15:0.00852919 16:0.0148053 17:0.136 18:0.113924 19:0.177419 20:0.106557 21:0.0454545 22:0.015873 23:0.00793651 24:0.017094 
0 1 0 1:0.0509724 2:0.157458 3:0.127907 4:0.0901431 5:0.0495413 6:0.00195585 7:0.0106465 8:0.0125565 9:0.0726953 10:0.156841 11:0.213938 12:0.126978 13:0.0506624 14:0.00622013 15:0.0112121 16:0.0129043 17:0.112 18:0.227848 19:0.354839 20:0.131148 21:0.0454545 22:0.00793651 23:0.00793651 24:0.00854701 
0 0 1 1:0.0356512 2:0.136464 3:0.0838432 4:0.0577086 5:0.0678899 6:0.00922054 7:0.0053232 8:0.011552 9:0.0577855 10:0.155907 11:0.087608 12:0.0615402 13:0.0640255 14:0.0039644 15:0.011138 16:0.0184913 17:0.104 18:0.189873 19:0.137097 20:0.0491803 21:0.0681818 22:0.015873 23:0.00793651 24:0.025641 
1 0 0 1:0.0550973 2:0.125414 3:0.104039 4:0.0648693 5:0.0678899 6:0.00391171 7:0.013308 8:0.0276243 9:0.0921076 10:0.131191 11:0.109298 12:0.0964538 13:0.053864 14:0.00391664 15:0.0105621 16:0.0215864 17:0.12 18:0.151899 19:0.129032 20:0.147541 21:0.0454545 22:0.00793651 23:0.015873 24:0.017094 
1 0 0 1:0.0338834 2:0.0950275 3:0.102203 4:0.117523 5:0.0807345 6:0.00307348 7:0.00608365 8:0.0140634 9:0.0658547 10:0.0863094 11:0.110448 12:0.141552 13:0.0917422 14:0.00189942 15:0.0093424 16:0.0177412 17:0.096 18:0.139241 19:0.120968 20:0.180328 21:0.136364 22:0.00793651 23:0.00793651 24:0.017094 
1 0 0 1:0.0406599 2:0.104972 3:0.0627295 4:0.0977252 5:0.0642202 6:0.00642646 7:0.00836515 8:0.0200905 9:0.0706938 10:0.112672 11:0.0765517 12:0.108485 13:0.0693813 14:0.00424046 15:0.0144514 16:0.0128078 17:0.104 18:0.164557 19:0.0967742 20:0.114754 21:0.0681818 22:0.00793651 23:0.00793651 24:0.017094 
1 0 0 1:0.017973 2:0.11547 3:0.0572216 4:0.0829823 5:0.0752294 6:0.00558815 7:0.00418251 8:0.00853841 9:0.0267206 10:0.115481 11:0.0822947 12:0.147918 13:0.0612005 14:0.00827408 15:0.0107129 16:0.0132656 17:0.032 18:0.177215 19:0.153226 20:0.245902 21:0.0909091 22:0.015873 23:0.00793651 24:0.017094 
1 1 1 1:0.030937 2:0.241989 3:0.160955 4:0.218618 5:0.179817 6:0.0142499 7:0.0129279 8:0.0200905 9:0.0740078 10:0.320913 11:0.273722 12:0.282664 13:0.139459 14:0.0190578 15:0.0165052 16:0.024301 17:0.12 18:0.481013 19:0.491935 20:0.418033 21:0.159091 22:0.031746 23:0.015873 24:0.025641 
0 0 1 1:0.0232764 2:0.122099 3:0.114443 4:0.0812974 5:0.0348624 6:0.0041912 7:0.00684423 8:0.0120544 9:0.0537937 10:0.144632 11:0.129642 12:0.0685612 13:0.0475244 14:0.00628361 15:0.0093424 16:0.0181052 17:0.064 18:0.227848 19:0.177419 20:0.0901639 21:0.0681818 22:0.015873 23:0.00793651 24:0.025641 
1 0 0 1:0.0321156 2:0.133701 3:0.116279 4:0.123841 5:0.0807345 6:0.00670578 7:0.0102662 8:0.0195881 9:0.0356235 10:0.141914 11:0.151641 12:0.125636 13:0.05512 14:0.00797748 15:0.0133125 16:0.0236435 17:0.032 18:0.164557 19:0.193548 20:0.155738 21:0.0681818 22:0.015873 23:0.015873 24:0.042735 
1 1 0 1:0.0282852 2:0.155801 3:0.126989 4:0.163858 5:0.100917 6:0.00586765 7:0.0091256 8:0.017077 9:0.050673 10:0.178628 11:0.173268 12:0.195379 13:0.0872582 14:0.00441144 15:0.0103487 16:0.0162134 17:0.08 18:0.265823 19:0.25 20:0.237705 21:0.113636 22:0.015873 23:0.00793651 24:0.025641 
1 1 0 1:0.0318208 2:0.144199 3:0.137699 4:0.17481 5:0.106423 6:0.00754409 7:0.00608365 8:0.0185836 9:0.06069 10:0.15797 11:0.151086 12:0.23191 13:0.132473 14:0.0115114 15:0.011175 16:0.019225 17:0.128 18:0.202532 19:0.201613 20:0.303279 21:0.136364 22:0.015873 23:0.015873 24:0.025641 
1 0 0 1:0.0209193 2:0.123757 3:0.100979 4:0.14743 5:0.0697254 6:0.00558815 7:0.0102662 8:0.0120544 9:0.0364001 10:0.146599 11:0.112747 12:0.14181 13:0.0492877 14:0.00528637 15:0.0138633 16:0.015451 17:0.056 18:0.21519 19:0.153226 20:0.155738 21:0.0454545 22:0.00793651 23:0.015873 24:0.017094 
1 0 0 1:0.0141426 2:0.127624 3:0.0820073 4:0.137321 5:0.0697254 6:0.0041912 7:0.0102662 8:0.0105474 9:0.020555 10:0.10796 11:0.105208 12:0.209109 13:0.0722009 14:0.00727947 15:0.011603 16:0.0069408 17:0.032 18:0.151899 19:0.16129 20:0.278689 21:0.113636 22:0.015873 23:0.015873 24:0.00854701 
0 1 0 1:0.017089 2:0.146961 3:0.133721 4:0.112889 5:0.0990832 6:0.00558815 7:0.00760469 8:0.0120544 9:0.0246016 10:0.153945 11:0.176343 12:0.113005 13:0.0725303 14:0.00631926 15:0.00992706 16:0.0126255 17:0.024 18:0.189873 19:0.274194 20:0.131148 21:0.0909091 22:0.015873 23:0.00793651 24:0.017094 
0 1 0 1:0.0226872 2:0.0381217 3:0.122399 4:0.0522324 5:0.0403676 6:0.00251467 7:0.0079848 8:0.00351582 9:0.0565361 10:0.0260307 11:0.20236 12:0.0654779 13:0.0623007 14:0.00246083 15:0.0114013 16:0.00723109 17:0.08 18:0.0379747 19:0.330645 20:0.0901639 21:0.0681818 22:0.00793651 23:0.00793651 24:0.00854701 
1 0 0 1:0.0436063 2:0.0314918 3:0.0257038 4:0.10278 5:0.047707 6:0.00558815 7:0.00836515 8:0.013561 9:0.0697748 10:0.0277905 11:0.0466082 12:0.131483 13:0.0549334 14:0.00874239 15:0.0085848 16:0.0104502 17:0.072 18:0.0506329 19:0.0887097 20:0.172131 21:0.0454545 22:0.0238095 23:0.015873 24:0.00854701 
1 0 0 1:0.0229817 2:0.0220994 3:0.0244798 4:0.0547598 5:0.0954134 6:0.0072646 7:0.00988606 8:0.00652937 9:0.0407239 10:0.019207 11:0.0385895 12:0.0957059 13:0.0880685 14:0.00630342 15:0.0147522 16:0.00608241 17:0.064 18:0.0506329 19:0.0806452 20:0.122951 21:0.113636 22:0.015873 23:0.015873 24:0.00854701 
1 0 0 1:0.0209193 2:0.025967 3:0.0290698 4:0.071609 5:0.166972 6:0.0125734 7:0.0102662 8:0.0110499 9:0.0495576 10:0.0278473 11:0.0439423 12:0.0960983 13:0.168217 14:0.0195273 15:0.00852919 16:0.0127623 17:0.072 18:0.0506329 19:0.112903 20:0.131148 21:0.204545 22:0.031746 23:0.00793651 24:0.025641 
1 0 0 1:0.0276959 2:0.0220994 3:0.0250918 4:0.0812974 5:0.0513767 6:0.00475002 7:0.00722434 8:0.019086 9:0.0544085 10:0.0217689 11:0.0469276 12:0.111739 13:0.0539935 14:0.00818171 15:0.0102582 16:0.0110899 17:0.08 18:0.0379747 19:0.0967742 20:0.147541 21:0.0454545 22:0.015873 23:0.015873 24:0.017094 
1 0 0 1:0.0164997 2:0.0232044 3:0.0403916 4:0.0926705 5:0.0660556 6:0.00866172 7:0.00874525 8:0.00803615 9:0.035498 10:0.0231167 11:0.0542041 12:0.120433 13:0.0694549 14:0.00590049 15:0.0124689 16:0.00988561 17:0.056 18:0.0379747 19:0.0645161 20:0.139344 21:0.0681818 22:0.015873 23:0.015873 24:0.00854701 
1 0 0 1:0.0321156 2:0.0314918 3:0.0373317 4:0.114574 5:0.0587162 6:0.00558815 7:0.0053232 8:0.011552 9:0.0636566 10:0.0475779 11:0.0706643 12:0.16381 13:0.0879938 14:0.00779801 15:0.00523981 16:0.00680807 17:0.064 18:0.0506329 19:0.120968 20:0.245902 21:0.136364 22:0.015873 23:0.00793651 24:0.00854701 
1 0 1 1:0.0677666 2:0.162431 3:0.131273 4:0.0741364 5:0.047707 6:0.00670578 7:0.00988606 8:0.0140634 9:0.102347 10:0.165523 11:0.174432 12:0.103707 13:0.053427 14:0.0128144 15:0.00764021 16:0.0214877 17:0.144 18:0.227848 19:0.258065 20:0.122951 21:0.0909091 22:0.0238095 23:0.015873 24:0.025641 
1 0 0 1:0.066588 2:0.130387 3:0.124235 4:0.0762427 5:0.0752294 6:0.00866172 7:0.00494297 8:0.0215972 9:0.115964 10:0.136236 11:0.166967 12:0.104513 13:0.0872209 14:0.00928531 15:0.0102008 16:0.0171949 17:0.144 18:0.202532 19:0.274194 20:0.155738 21:0.0909091 22:0.0238095 23:0.015873 24:0.017094 
1 0 0 1:0.0760164 2:0.139226 3:0.125765 4:0.0770851 5:0.0807345 6:0.00391171 7:0.0091256 8:0.0220996 9:0.113129 10:0.150271 11:0.166954 12:0.0975978 13:0.0732692 14:0.00553213 15:0.0103487 16:0.0131248 17:0.12 18:0.253165 19:0.266129 20:0.122951 21:0.0681818 22:0.015873 23:0.015873 24:0.017094 
1 0 1 1:0.0822039 2:0.159668 3:0.104039 4:0.0614995 5:0.0550465 6:0.00363239 7:0.00646388 8:0.013561 9:0.141629 10:0.178528 11:0.152644 12:0.0858523 13:0.0574345 14:0.0109764 15:0.0148228 16:0.022478 17:0.176 18:0.240506 19:0.217742 20:0.147541 21:0.0681818 22:0.0238095 23:0.015873 24:0.025641 
1 0 0 1:0.0875074 2:0.154144 3:0.105263 4:0.0749788 5:0.0440373 6:0.00754409 7:0.00608365 8:0.0241086 9:0.140084 10:0.151774 11:0.132506 12:0.098183 13:0.0310933 14:0.00743187 15:0.0093424 16:0.0199234 17:0.2 18:0.21519 19:0.145161 20:0.131148 21:0.0454545 22:0.015873 23:0.00793651 24:0.025641 
0 0 1 1:0.0604007 2:0.174585 3:0.117809 4:0.0930918 5:0.0825688 6:0.00391171 7:0.00494297 8:0.0165746 9:0.0737079 10:0.165546 11:0.127666 12:0.0760899 13:0.079567 14:0.00446676 15:0.0069691 16:0.0125398 17:0.088 18:0.227848 19:0.169355 20:0.0655738 21:0.0909091 22:0.015873 23:0.00793651 24:0.017094 
1 0 0 1:0.0704184 2:0.163536 3:0.104651 4:0.125526 5:0.0807345 6:0.00447052 7:0.00988606 8:0.0195881 9:0.111476 10:0.12033 11:0.137789 12:0.192584 13:0.0894003 14:0.00797748 15:0.0152806 16:0.0212855 17:0.152 18:0.126582 19:0.217742 20:0.352459 21:0.159091 22:0.015873 23:0.015873 24:0.017094 
1 0 1 1:0.0662935 2:0.167956 3:0.133721 4:0.0939343 5:0.0733951 6:0.00810291 7:0.00760469 8:0.0165746 9:0.107385 10:0.182771 11:0.172961 12:0.0868428 13:0.0444941 14:0.00718763 15:0.0128714 16:0.0193037 17:0.12 18:0.202532 19:0.217742 20:0.0819672 21:0.0454545 22:0.015873 23:0.00793651 24:0.017094 
1 1 0 1:0.0618738 2:0.126519 3:0.134333 4:0.0846672 5:0.0752294 6:0.00670578 7:0.0079848 8:0.0256152 9:0.103597 10:0.132754 11:0.195062 12:0.103579 13:0.0568482 14:0.00749638 15:0.0069691 16:0.0305339 17:0.128 18:0.151899 19:0.241935 20:0.122951 21:0.0681818 22:0.00793651 23:0.00793651 24:0.042735 
1 0 1 1:0.0742486 2:0.175138 3:0.139535 4:0.0876157 5:0.0642202 6:0.00586765 7:0.0091256 8:0.0180815 9:0.11559 10:0.150835 11:0.156225 12:0.104514 13:0.0610677 14:0.00547907 15:0.0143506 16:0.0221596 17:0.12 18:0.253165 19:0.201613 20:0.131148 21:0.0681818 22:0.00793651 23:0.015873 24:0.025641 
1 0 1 1:0.0833825 2:0.172375 3:0.104345 4:0.0728728 5:0.0788991 6:0.00279408 7:0.0053232 8:0.017077 9:0.173665 10:0.209059 11:0.154601 12:0.0700551 13:0.0340564 14:0.0103117 15:0.0139783 16:0.0119812 17:0.216 18:0.35443 19:0.346774 20:0.0819672 21:0.0454545 22:0.015873 23:0.0238095 24:0.017094 
1 1 1 1:0.0686506 2:0.183978 3:0.117503 4:0.0724515 5:0.0990832 6:0.0100587 7:0.0121674 8:0.0150679 9:0.0988082 10:0.153002 11:0.185087 12:0.0949584 13:0.0777027 14:0.00682105 15:0.0136019 16:0.0161716 17:0.152 18:0.21519 19:0.282258 20:0.106557 21:0.136364 22:0.015873 23:0.00793651 24:0.017094 
1 1 0 1:0.0621686 2:0.179005 3:0.134945 4:0.0859308 5:0.0752294 6:0.00922054 7:0.00608365 8:0.0180815 9:0.103747 10:0.166573 11:0.21559 12:0.10653 13:0.0612005 14:0.00609273 15:0.00600519 16:0.0171693 17:0.128 18:0.21519 19:0.387097 20:0.155738 21:0.0681818 22:0.015873 23:0.00793651 24:0.017094 
1 0 1 1:0.0886859 2:0.150276 3:0.0945532 4:0.0724515 5:0.0807345 6:0.00391171 7:0.0110266 8:0.0130589 9:0.1253 10:0.142666 11:0.124704 12:0.069085 13:0.0758648 14:0.00655562 15:0.00958253 16:0.0245846 17:0.184 18:0.227848 19:0.185484 20:0.0983607 21:0.0909091 22:0.015873 23:0.00793651 24:0.025641 
1 0 1 1:0.070713 2:0.242541 3:0.0829254 4:0.089722 5:0.0623859 6:0.00363239 7:0.0106465 8:0.019086 9:0.129145 10:0.204458 11:0.136994 12:0.129533 13:0.0719538 14:0.00249777 15:0.00743058 16:0.0154084 17:0.184 18:0.253165 19:0.225806 20:0.172131 21:0.0909091 22:0.00793651 23:0.00793651 24:0.017094 
1 1 1 1:0.0925161 2:0.159116 3:0.122093 4:0.0724515 5:0.0770648 6:0.00782341 7:0.00950571 8:0.0291312 9:0.122012 10:0.139659 11:0.186477 12:0.0651105 13:0.0305166 14:0.00988149 15:0.0156113 16:0.0291948 17:0.16 18:0.202532 19:0.306452 20:0.057377 21:0.0454545 22:0.015873 23:0.0238095 24:0.025641 
1 0.07453834748288557 1 1:0.0889805 2:0.189503 3:0.114137 4:0.0686605 5:0.0770648 6:0.00838223 7:0.0102662 8:0.0256152 9:0.117173 10:0.184978 11:0.170546 12:0.0785855 13:0.0611456 14:0.00579174 15:0.0159827 16:0.0234991 17:0.16 18:0.227848 19:0.298387 20:0.106557 21:0.0681818 22:0.015873 23:0.015873 24:0.025641 
1 0 0 1:0.0857396 2:0.18011 3:0.132191 4:0.100674 5:0.0807345 6:0.00195585 7:0.0136883 8:0.0261176 9:0.140652 10:0.163305 11:0.142442 12:0.131588 13:0.0595294 14:0.00464883 15:0.00683505 16:0.0198843 17:0.224 18:0.227848 19:0.201613 20:0.188525 21:0.0909091 22:0.00793651 23:0.00793651 24:0.017094 
1 0 1 1:0.071597 2:0.182873 3:0.110465 4:0.0690816 5:0.0568807 6:0.00586765 7:0.0125475 8:0.0205926 9:0.10788 10:0.180257 11:0.177006 12:0.096316 13:0.0386552 14:0.00495084 15:0.00838719 16:0.0308035 17:0.152 18:0.177215 19:0.258065 20:0.122951 21:0.0454545 22:0.00793651 23:0.00793651 24:0.0512821 
1 0 1 1:0.0651149 2:0.178453 3:0.0908813 4:0.0859308 5:0.0311927 6:0.00866172 7:0.0106465 8:0.0185836 9:0.103733 10:0.180924 11:0.120218 12:0.0800679 13:0.0557371 14:0.0064101 15:0.0129417 16:0.0234452 17:0.16 18:0.240506 19:0.185484 20:0.0901639 21:0.0681818 22:0.00793651 23:0.015873 24:0.025641 
1 0 0 1:0.0506776 2:0.161878 3:0.120563 4:0.0909856 5:0.0862385 6:0.00642646 7:0.0091256 8:0.0165746 9:0.0867241 10:0.120388 11:0.145841 12:0.0889177 13:0.0403581 14:0.00684824 15:0.00846336 16:0.0173793 17:0.128 18:0.139241 19:0.258065 20:0.0819672 21:0.0681818 22:0.00793651 23:0.00793651 24:0.017094 
0 0 1 1:0.0548025 2:0.180663 3:0.116585 4:0.0834034 5:0.0495413 6:0.00447052 7:0.00760469 8:0.0205926 9:0.083496 10:0.180882 11:0.137799 12:0.0683228 13:0.0506624 14:0.00495503 15:0.00992706 16:0.015712 17:0.128 18:0.253165 19:0.201613 20:0.0491803 21:0.0681818 22:0.015873 23:0.00793651 24:0.017094 
0 0 1 1:0.0477312 2:0.175138 3:0.128825 4:0.0627633 5:0.0862385 6:0.0072646 7:0.0102662 8:0.0241086 9:0.0770745 10:0.201048 11:0.124185 12:0.0668207 13:0.0741761 14:0.00918902 15:0.011603 16:0.022932 17:0.088 18:0.177215 19:0.177419 20:0.0819672 21:0.0909091 22:0.015873 23:0.00793651 24:0.017094 
1 0 0 1:0.0633471 2:0.151381 3:0.130661 4:0.104465 5:0.0733951 6:0.00866172 7:0.0159697 8:0.0215972 9:0.0804198 10:0.125165 11:0.161525 12:0.139489 13:0.0823954 14:0.0110572 15:0.00747262 16:0.0245006 17:0.08 18:0.164557 19:0.193548 20:0.147541 21:0.113636 22:0.015873 23:0.00793651 24:0.017094 
1 0 1 1:0.0730701 2:0.17569 3:0.0985311 4:0.0973041 5:0.0770648 6:0.00698528 7:0.00988606 8:0.0215972 9:0.108524 10:0.19426 11:0.114 12:0.11355 13:0.0847648 14:0.0121158 15:0.0108022 16:0.0261745 17:0.144 18:0.303797 19:0.201613 20:0.131148 21:0.0909091 22:0.015873 23:0.00793651 24:0.025641 
1 0 0 1:0.0830877 2:0.187293 3:0.120257 4:0.0968828 5:0.0660556 6:0.0111763 7:0.00874525 8:0.0256152 9:0.130064 10:0.173308 11:0.168437 12:0.129916 13:0.0859736 14:0.00650853 15:0.00885121 16:0.0234991 17:0.184 18:0.227848 19:0.266129 20:0.155738 21:0.0909091 22:0.015873 23:0.015873 24:0.017094 
1 0 1 1:0.0760164 2:0.166298 3:0.0535496 4:0.0707665 5:0.0733951 6:0.00866172 7:0.00570343 8:0.0180815 9:0.106002 10:0.157109 11:0.0655903 12:0.0826018 13:0.081158 14:0.00928531 15:0.00836684 16:0.014457 17:0.152 18:0.189873 19:0.0725806 20:0.0737705 21:0.136364 22:0.015873 23:0.00793651 24:0.017094 
1 0 1 1:0.0878019 2:0.170718 3:0.0520195 4:0.0842459 5:0.0844043 6:0.00782341 7:0.0079848 8:0.0231041 9:0.125941 10:0.191093 11:0.0662277 12:0.12258 13:0.0717057 14:0.00502164 15:0.00895109 16:0.0284412 17:0.184 18:0.329114 19:0.0967742 20:0.147541 21:0.0681818 22:0.00793651 23:0.00793651 24:0.025641 
1 0 0 1:0.091043 2:0.141989 3:0.0630354 4:0.0901431 5:0.0642202 6:0.00922054 7:0.00684423 8:0.0205926 9:0.117443 10:0.127898 11:0.08024 12:0.074828 13:0.0638949 14:0.0116437 15:0.0067057 16:0.0271448 17:0.112 18:0.126582 19:0.145161 20:0.0819672 21:0.0681818 22:0.015873 23:0.00793651 24:0.025641 
1 0 0.8598608695658951 1:0.0713022 2:0.154696 3:0.0676255 4:0.103622 5:0.088074 6:0.00363239 7:0.00760469 8:0.0251131 9:0.126419 10:0.15585 11:0.0780181 12:0.131225 13:0.0778608 14:0.00631528 15:0.0171028 16:0.0235126 17:0.16 18:0.21519 19:0.112903 20:0.155738 21:0.0909091 22:0.015873 23:0.015873 24:0.025641 
1 0 1 1:0.0807306 2:0.222652 3:0.0651775 4:0.103622 5:0.100917 6:0.00670578 7:0.0121674 8:0.0226017 9:0.143963 10:0.214471 11:0.066643 12:0.121303 13:0.0824042 14:0.0107089 15:0.0101194 16:0.0234452 17:0.192 18:0.278481 19:0.104839 20:0.114754 21:0.0909091 22:0.0238095 23:0.015873 24:0.017094 
1 0 1 1:0.100766 2:0.155249 3:0.0700735 4:0.0905645 5:0.0550465 6:0.00586765 7:0.00646388 8:0.0220996 9:0.154334 10:0.138581 11:0.0847757 12:0.115776 13:0.048304 14:0.0102669 15:0.0142876 16:0.0294223 17:0.176 18:0.240506 19:0.145161 20:0.131148 21:0.0454545 22:0.015873 23:0.015873 24:0.034188 
1 0 0 1:0.0574544 2:0.128729 3:0.0529376 4:0.0657118 5:0.0568807 6:0.00782341 7:0.0102662 8:0.0271222 9:0.0947635 10:0.108318 11:0.06847 12:0.0946709 13:0.0866598 14:0.0111947 15:0.0104105 16:0.0216378 17:0.12 18:0.151899 19:0.129032 20:0.139344 21:0.0909091 22:0.015873 23:0.015873 24:0.017094 
1 0 1 1:0.116087 2:0.18232 3:0.0514075 4:0.080876 5:0.0660556 6:0.00922054 7:0.00684423 8:0.0185836 9:0.209435 10:0.171679 11:0.0577913 12:0.0915957 13:0.0667397 14:0.00609273 15:0.0105763 16:0.017949 17:0.328 18:0.265823 19:0.0645161 20:0.106557 21:0.0681818 22:0.015873 23:0.00793651 24:0.025641 
1 0 1 1:0.108721 2:0.203867 3:0.0688495 4:0.103201 5:0.106423 6:0.00782341 7:0.00950571 8:0.0256152 9:0.179553 10:0.210658 11:0.0643644 12:0.114628 13:0.0776226 14:0.0089739 15:0.010581 16:0.026312 17:0.208 18:0.291139 19:0.0725806 20:0.131148 21:0.0909091 22:0.00793651 23:0.00793651 24:0.025641 
1 0 1 1:0.096641 2:0.158563 3:0.0716034 4:0.0998315 5:0.0770648 6:0.00614697 7:0.00570343 8:0.0241086 9:0.126259 10:0.156696 11:0.0960375 12:0.149243 13:0.0707922 14:0.00717613 15:0.010863 16:0.0268699 17:0.136 18:0.21519 19:0.120968 20:0.139344 21:0.0681818 22:0.00793651 23:0.015873 24:0.034188 
1 0 1 1:0.102239 2:0.170165 3:0.0449817 4:0.0572872 5:0.053211 6:0.00894104 7:0.0106465 8:0.0226017 9:0.138936 10:0.167594 11:0.0597404 12:0.0685293 13:0.0542406 14:0.00700687 15:0.00874595 16:0.0262606 17:0.192 18:0.202532 19:0.112903 20:0.0819672 21:0.0909091 22:0.015873 23:0.00793651 24:0.034188 
1 0 1 1:0.0598115 2:0.137016 3:0.0504896 4:0.0648693 5:0.0788991 6:0.00530883 7:0.0152093 8:0.0140634 9:0.0992152 10:0.140416 11:0.0784483 12:0.0735139 13:0.0707197 14:0.00454736 15:0.0122681 16:0.0232595 17:0.16 18:0.21519 19:0.112903 20:0.0983607 21:0.0681818 22:0.00793651 23:0.015873 24:0.017094 
1 0 0 1:0.0686506 2:0.11326 3:0.0330477 4:0.0699241 5:0.0770648 6:0.00894104 7:0.00646388 8:0.017077 9:0.0986848 10:0.137486 11:0.0463138 12:0.0721848 13:0.0694549 14:0.0107089 15:0.00838719 16:0.0141499 17:0.136 18:0.202532 19:0.0645161 20:0.0983607 21:0.0909091 22:0.015873 23:0.00793651 24:0.017094 
1 0 1 1:0.0721862 2:0.150276 3:0.0511016 4:0.0745577 5:0.0422018 6:0.00335289 7:0.00570343 8:0.0130589 9:0.118825 10:0.195933 11:0.0479022 12:0.0673512 13:0.0477231 14:0.00554843 15:0.00770799 16:0.0185861 17:0.16 18:0.329114 19:0.0564516 20:0.0737705 21:0.0909091 22:0.00793651 23:0.00793651 24:0.025641 
1 0 0 1:0.0636417 2:0.154696 3:0.0403916 4:0.0762427 5:0.0642202 6:0.00810291 7:0.00684423 8:0.0215972 9:0.0993082 10:0.114946 11:0.0557171 12:0.115378 13:0.0797636 14:0.0112983 15:0.011175 16:0.0158603 17:0.176 18:0.177215 19:0.0725806 20:0.172131 21:0.113636 22:0.015873 23:0.00793651 24:0.025641 
1 0 0 1:0.066588 2:0.137569 3:0.0474297 4:0.0577086 5:0.0513767 6:0.00251467 7:0.00836515 8:0.0175791 9:0.107275 10:0.140016 11:0.058714 12:0.060198 13:0.0493854 14:0.00471626 15:0.00984976 16:0.0170301 17:0.128 18:0.202532 19:0.0645161 20:0.0737705 21:0.0681818 22:0.00793651 23:0.00793651 24:0.017094 
1 0 0 1:0.0718915 2:0.106077 3:0.0281517 4:0.0509689 5:0.0733951 6:0.0072646 7:0.00874525 8:0.0236062 9:0.112138 10:0.103669 11:0.0277901 12:0.0707017 13:0.0654485 14:0.0100905 15:0.00885121 16:0.026312 17:0.16 18:0.151899 19:0.0322581 20:0.0737705 21:0.0909091 22:0.015873 23:0.00793651 24:0.034188 
1 0 0 1:0.0769004 2:0.133701 3:0.0391676 4:0.0610784 5:0.0715596 6:0.00614697 7:0.00684423 8:0.0246107 9:0.10768 10:0.12608 11:0.0461451 12:0.0884556 13:0.0477231 14:0.008141 15:0.011175 16:0.0252221 17:0.144 18:0.164557 19:0.0887097 20:0.114754 21:0.0681818 22:0.015873 23:0.00793651 24:0.017094 
1 0 1 1:0.0627578 2:0.135359 3:0.0462057 4:0.0871946 5:0.0660556 6:0.00782341 7:0.0079848 8:0.0231041 9:0.102379 10:0.142095 11:0.0659759 12:0.125309 13:0.0734328 14:0.0111947 15:0.0108069 16:0.0205014 17:0.12 18:0.227848 19:0.104839 20:0.147541 21:0.0909091 22:0.0238095 23:0.015873 24:0.025641 
1 0 1 1:0.0704184 2:0.153039 3:0.0410036 4:0.0766638 5:0.0587162 6:0.00586765 7:0.00342206 8:0.0185836 9:0.108545 10:0.155163 11:0.0467811 12:0.0939809 13:0.0606987 14:0.0119853 15:0.00805993 16:0.019225 17:0.16 18:0.240506 19:0.0645161 20:0.131148 21:0.0454545 22:0.0238095 23:0.00793651 24:0.025641 
1 0 0 1:0.0657042 2:0.141989 3:0.0413097 4:0.0610784 5:0.0513767 6:0.00698528 7:0.0091256 8:0.0130589 9:0.127154 10:0.143738 11:0.0433966 12:0.0699342 13:0.066911 14:0.00812244 15:0.0164418 16:0.00607563 17:0.184 18:0.177215 19:0.0403226 20:0.0655738 21:0.0681818 22:0.015873 23:0.015873 24:0.00854701 
0 1 0 1:0.00677675 2:0.0209944 3:0.120869 4:0.0324348 5:0.0293584 6:0.00447052 7:0.00950571 8:0.0100453 9:0.0075972 10:0.0276086 11:0.218269 12:0.0619322 13:0.0375638 14:0.00213034 15:0.00455074 16:0.00388761 17:0.008 18:0.0632911 19:0.306452 20:0.0819672 21:0.0681818 22:0.00793651 23:0.00793651 24:0.00854701 
1 0.4435988730357429 0 1:0.00972313 2:0.0232044 3:0.0921053 4:0.116259 5:0.100917 6:0.00447052 7:0.00608365 8:0.00904083 9:0.0173715 10:0.0339253 11:0.186551 12:0.212349 13:0.0954149 14:0.0147947 15:0.0093424 16:0.0114206 17:0.032 18:0.0886076 19:0.233871 20:0.270492 21:0.113636 22:0.031746 23:0.00793651 24:0.034188 
1 1 0 1:0.0109017 2:0.0569062 3:0.222154 4:0.136478 5:0.148624 6:0.00614697 7:0.00722434 8:0.00954293 9:0.0139194 10:0.0683299 11:0.294183 12:0.194376 13:0.147781 14:0.00861145 15:0.00901088 16:0.00947359 17:0.016 18:0.101266 19:0.5 20:0.295082 21:0.227273 22:0.015873 23:0.00793651 24:0.017094 
0 1 0 1:0.0079553 2:0.0524863 3:0.254283 4:0.0880371 5:0.0770648 6:0.00614697 7:0.00684423 8:0.00703163 9:0.0167894 10:0.0468313 11:0.427288 12:0.0924659 13:0.083546 14:0.0108582 15:0.011175 16:0.00983664 17:0.016 18:0.0759494 19:0.604839 20:0.155738 21:0.0909091 22:0.015873 23:0.015873 24:0.00854701 
0 1 0 1:0.00677675 2:0.0348067 3:0.150857 4:0.0745577 5:0.0605505 6:0.00475002 7:0.00760469 8:0.0100453 9:0.00948726 10:0.0323561 11:0.186254 12:0.0925392 13:0.0456722 14:0.00865152 15:0.00734629 16:0.00480266 18:0.0506329 19:0.274194 20:0.0983607 21:0.0681818 22:0.015873 23:0.00793651 24:0.00854701 
0 1 0 1:0.0103124 2:0.0486187 3:0.180844 4:0.0876157 5:0.0715596 6:0.0041912 7:0.011407 8:0.00954293 9:0.0118404 10:0.0534588 11:0.238148 12:0.0752751 13:0.0708866 14:0.00628361 15:0.0115802 16:0.00616378 17:0.016 18:0.0632911 19:0.298387 20:0.0819672 21:0.0909091 22:0.00793651 23:0.00793651 24:0.00854701 
1 1 0 1:0.00530347 2:0.0370167 3:0.160955 4:0.0880371 5:0.0954134 6:0.00810291 7:0.00874525 8:0.0110499 9:0.0141117 10:0.0384514 11:0.184745 12:0.145441 13:0.100654 14:0.00515022 15:0.0124689 16:0.0127623 17:0.024 18:0.0506329 19:0.225806 20:0.204918 21:0.136364 22:0.00793651 23:0.015873 24:0.017094 
0 1 0 1:0.0055982 2:0.0314918 3:0.152081 4:0.0762427 5:0.0605505 6:0.00307348 7:0.0079848 8:0.0100453 9:0.00713716 10:0.0363409 11:0.209561 12:0.081808 13:0.0622666 14:0.00631528 15:0.013121 16:0.00823546 17:0.008 18:0.0506329 19:0.241935 20:0.0901639 21:0.0454545 22:0.015873 23:0.015873 24:0.00854701 
0 1 0 1:0.0055982 2:0.0359117 3:0.182986 4:0.0724515 5:0.0972477 6:0.00447052 7:0.0091256 8:0.00904083 9:0.00905405 10:0.0473591 11:0.231979 12:0.09934 13:0.0546172 14:0.00845059 15:0.00780678 16:0.0136182 17:0.008 18:0.126582 19:0.298387 20:0.131148 21:0.0681818 22:0.015873 23:0.00793651 24:0.025641 
0 1 0 1:0.0079553 2:0.037569 3:0.140147 4:0.0754002 5:0.0752294 6:0.00894104 7:0.0053232 8:0.0105474 9:0.00793011 10:0.0401738 11:0.200263 12:0.0802478 13:0.0823657 14:0.00495503 15:0.00930299 16:0.00859794 17:0.016 18:0.101266 19:0.306452 20:0.114754 21:0.136364 22:0.015873 23:0.00793651 24:0.00854701 
1 0 0 1:0.0863288 2:0.0961324 3:0.119951 4:0.080876 5:0.0513767 6:0.00363239 7:0.00950571 8:0.0195881 9:0.159137 10:0.0705181 11:0.124702 12:0.0884662 13:0.0445962 14:0.00528227 15:0.0150877 16:0.0188101 17:0.208 18:0.0886076 19:0.145161 20:0.0901639 21:0.0681818 22:0.00793651 23:0.015873 24:0.017094 
1 0 0 1:0.0642309 2:0.0850827 3:0.0939413 4:0.0631844 5:0.0513767 6:0.00363239 7:0.013308 8:0.0125565 9:0.0963726 10:0.0743805 11:0.128305 12:0.0854667 13:0.0478099 14:0.00474992 15:0.0139996 16:0.0208497 17:0.104 18:0.101266 19:0.177419 20:0.0901639 21:0.0681818 22:0.00793651 23:0.0238095 24:0.017094 
1 0 0 1:0.0883912 2:0.0878453 3:0.112301 4:0.060657 5:0.053211 6:0.0041912 7:0.00342206 8:0.0175791 9:0.124604 10:0.077604 11:0.136031 12:0.0757778 13:0.0496413 14:0.00577154 15:0.00805993 16:0.0226254 17:0.12 18:0.113924 19:0.153226 20:0.0983607 21:0.0454545 22:0.00793651 23:0.00793651 24:0.025641 
1 0 0 1:0.0839717 2:0.101657 3:0.100979 4:0.0497051 5:0.0440373 6:0.00279408 7:0.0125475 8:0.0215972 9:0.130201 10:0.1067 11:0.135393 12:0.0653345 13:0.0449003 14:0.00218653 15:0.0120569 16:0.0245006 17:0.12 18:0.126582 19:0.225806 20:0.0655738 21:0.0454545 22:0.00793651 23:0.015873 24:0.034188 
0.7334494814326955 0 0 1:0.0804361 2:0.0944751 3:0.102203 4:0.0598146 5:0.0330281 6:0.00530883 7:0.00760469 8:0.0180815 9:0.136397 10:0.0863524 11:0.17163 12:0.0815058 13:0.0421269 14:0.00856401 15:0.011138 16:0.0151509 17:0.144 18:0.126582 19:0.258065 20:0.057377 21:0.0454545 22:0.015873 23:0.00793651 24:0.025641 
1 0 0 1:0.0925161 2:0.118784 3:0.122399 4:0.0560236 5:0.0550465 6:0.00447052 7:0.00988606 8:0.0150679 9:0.15321 10:0.123857 11:0.160193 12:0.0659568 13:0.0366942 14:0.00650853 15:0.00894612 16:0.0168392 17:0.176 18:0.189873 19:0.274194 20:0.0819672 21:0.0454545 22:0.00793651 23:0.00793651 24:0.017094 
1 0 0 1:0.0748379 2:0.0806628 3:0.0976132 4:0.0657118 5:0.0788991 6:0.00670578 7:0.0110266 8:0.017077 9:0.108049 10:0.0934704 11:0.163411 12:0.100587 13:0.0929818 14:0.00937428 15:0.00764542 16:0.0168805 17:0.12 18:0.126582 19:0.266129 20:0.155738 21:0.113636 22:0.015873 23:0.00793651 24:0.017094 
1 0 0 1:0.067472 2:0.0856354 3:0.0804774 4:0.0463352 5:0.0807345 6:0.00447052 7:0.0102662 8:0.0220996 9:0.118428 10:0.0831211 11:0.122344 12:0.0515358 13:0.0441877 14:0.00700687 15:0.00916967 16:0.0239801 17:0.152 18:0.101266 19:0.177419 20:0.0819672 21:0.0681818 22:0.015873 23:0.015873 24:0.025641 
1 0 0 1:0.077195 2:0.0707181 3:0.0425337 4:0.0758213 5:0.0678899 6:0.00502934 7:0.0117871 8:0.0165746 9:0.120112 10:0.0799137 11:0.0367514 12:0.0896113 13:0.0667935 14:0.0048715 15:0.011749 16:0.0186709 17:0.144 18:0.139241 19:0.0483871 20:0.114754 21:0.0681818 22:0.015873 23:0.00793651 24:0.025641 
1 0 0 1:0.0742486 2:0.0817678 3:0.0339658 4:0.0678181 5:0.0403676 6:0.00335289 7:0.0053232 8:0.0200905 9:0.121419 10:0.0765327 11:0.0487846 12:0.099556 13:0.0373475 14:0.00448373 15:0.0134294 16:0.0195338 17:0.192 18:0.101266 19:0.0725806 20:0.122951 21:0.0454545 22:0.00793651 23:0.00793651 24:0.017094 
1 0 0 1:0.0928108 2:0.0845304 3:0.0367197 4:0.0834034 5:0.0678899 6:0.00586765 7:0.00570343 8:0.013561 9:0.138611 10:0.0900442 11:0.0565379 12:0.111312 13:0.0460751 14:0.00441144 15:0.00703321 16:0.0112142 17:0.168 18:0.126582 19:0.0806452 20:0.139344 21:0.0454545 22:0.00793651 23:0.00793651 24:0.00854701 
1 0 0 1:0.0783735 2:0.0519336 3:0.0370258 4:0.0391745 5:0.0403676 6:0.00251467 7:0.00760469 8:0.0185836 9:0.111327 10:0.0482234 11:0.0418354 12:0.0504258 13:0.0373475 14:0.00628361 15:0.0134294 16:0.0222753 17:0.176 18:0.0886076 19:0.0645161 20:0.0737705 21:0.0681818 22:0.015873 23:0.015873 24:0.034188 
1 0 0 1:0.077195 2:0.0441988 3:0.0449817 4:0.0754002 5:0.053211 6:0.00670578 7:0.011407 8:0.0220996 9:0.129352 10:0.04927 11:0.0490799 12:0.0829556 13:0.0527265 14:0.00441568 15:0.0115802 16:0.021035 17:0.16 18:0.0886076 19:0.0564516 20:0.0737705 21:0.0681818 22:0.00793651 23:0.015873 24:0.017094 
1 0 0 1:0.0604007 2:0.0701658 3:0.0361077 4:0.0560236 5:0.0660556 6:0.00391171 7:0.0091256 8:0.0120544 9:0.100891 10:0.0874163 11:0.0497388 12:0.0679469 13:0.0427483 14:0.00705315 15:0.0109519 16:0.0140617 17:0.136 18:0.126582 19:0.0645161 20:0.0819672 21:0.0681818 22:0.00793651 23:0.015873 24:0.00854701 
1 0 0 1:0.0680613 2:0.0906076 3:0.0391676 4:0.0720304 5:0.0623859 6:0.00642646 7:0.0079848 8:0.013561 9:0.120944 10:0.0964881 11:0.0510533 12:0.0884083 13:0.0458116 14:0.00478352 15:0.00958253 16:0.0126997 17:0.12 18:0.139241 19:0.0645161 20:0.0901639 21:0.0454545 22:0.015873 23:0.00793651 24:0.017094 
1 0 0 1:0.0987036 2:0.0895026 3:0.0440636 4:0.0783487 5:0.0587162 6:0.00251467 7:0.00722434 8:0.0185836 9:0.129212 10:0.0687097 11:0.0609901 12:0.107778 13:0.0502627 14:0.00471626 15:0.00964102 16:0.0109533 17:0.144 18:0.0886076 19:0.0806452 20:0.122951 21:0.0454545 22:0.00793651 23:0.00793651 24:0.025641 
1 0 0 1:0.0786683 2:0.0690608 3:0.0345778 4:0.0417018 5:0.0311927 6:0.00307348 7:0.00304183 8:0.0231041 9:0.130836 10:0.0534358 11:0.0471661 12:0.0521455 13:0.0346698 14:0.000652085 15:0.00696375 16:0.0166731 17:0.224 18:0.0886076 19:0.0483871 20:0.0409836 21:0.0454545 22:0.00793651 23:0.00793651 24:0.017094 
1 0 0 1:0.0907483 2:0.0646409 3:0.0309058 4:0.0610784 5:0.0550465 6:0.00447052 7:0.0091256 8:0.013561 9:0.150531 10:0.0890905 11:0.0373632 12:0.0832213 13:0.0673381 14:0.00845059 15:0.0115436 16:0.0155202 17:0.208 18:0.151899 19:0.0725806 20:0.0901639 21:0.0681818 22:0.015873 23:0.00793651 24:0.017094 
1 0 0 1:0.0751326 2:0.0607734 3:0.0336597 4:0.0450717 5:0.0385321 6:0.00447052 7:0.0053232 8:0.0125565 9:0.13423 10:0.0792691 11:0.0486838 12:0.0516462 13:0.0403054 14:0.00650853 15:0.00734629 16:0.0098917 17:0.2 18:0.139241 19:0.0887097 20:0.0655738 21:0.0454545 22:0.015873 23:0.00793651 24:0.017094 
1 0 0 1:0.0577489 2:0.0817678 3:0.0367197 4:0.0602359 5:0.0348624 6:0.00447052 7:0.0091256 8:0.0140634 9:0.117257 10:0.103854 11:0.0435238 12:0.0751162 13:0.0459247 14:0.0060008 15:0.00973343 16:0.0214877 17:0.176 18:0.21519 19:0.0887097 20:0.0819672 21:0.0454545 22:0.00793651 23:0.015873 24:0.034188 
1 0 0 1:0.0553918 2:0.0524863 3:0.0367197 4:0.0619209 5:0.0458716 6:0.00335289 7:0.0079848 8:0.0150679 9:0.0890228 10:0.049951 11:0.0654359 12:0.0957627 13:0.0403054 14:0.00706854 15:0.00958253 16:0.0133946 17:0.088 18:0.0886076 19:0.129032 20:0.114754 21:0.0454545 22:0.015873 23:0.015873 24:0.025641 
1 0 0 1:0.0291692 2:0.0607734 3:0.0324357 4:0.0724515 5:0.0165138 6:0.00195585 7:0.00342206 8:0.013561 9:0.0965954 10:0.0422882 11:0.0402864 12:0.0759658 13:0.0167114 14:0.00770412 15:0.00455074 16:0.0161977 17:0.192 18:0.0886076 19:0.0564516 20:0.0737705 21:0.0227273 22:0.0238095 24:0.017094 
1 0 0 1:0.0350619 2:0.0497237 3:0.0180539 4:0.0619209 5:0.047707 6:0.00447052 7:0.00418251 8:0.013561 9:0.0599131 10:0.0481366 11:0.0328272 12:0.102588 13:0.0423344 14:0.00650853 15:0.00948473 16:0.0148324 17:0.096 18:0.0886076 19:0.0564516 20:0.139344 21:0.0681818 22:0.015873 23:0.00793651 24:0.017094 
1 0 0 1:0.0315263 2:0.0491714 3:0.0299877 4:0.0707665 5:0.0513767 6:0.0041912 7:0.00494297 8:0.011552 9:0.0624819 10:0.0525099 11:0.0333519 12:0.0926227 13:0.0478099 14:0.00776424 15:0.00556338 16:0.00927524 17:0.112 18:0.0759494 19:0.0403226 20:0.122951 21:0.0681818 22:0.00793651 23:0.00793651 24:0.017094 
1 0 0 1:0.0347672 2:0.0342541 3:0.0208078 4:0.0661332 5:0.0605505 6:0.00391171 7:0.0106465 8:0.00803615 9:0.0722405 10:0.0308394 11:0.0330654 12:0.109639 13:0.0355557 14:0.00391664 15:0.0129417 16:0.00988561 17:0.104 18:0.0506329 19:0.0483871 20:0.147541 21:0.0454545 22:0.015873 23:0.015873 24:0.00854701 
-1 0 1 1:0.0465527 2:0.0900553 3:0.0657895 4:0.219461 5:0.198166 6:0.0215145 7:0.0855514 8:0.0587643 9:0.0633714 10:0.0989263 11:0.0919081 12:0.2341 13:0.17443 14:0.0362394 15:0.106056 16:0.0648036 17:0.072 18:0.139241 19:0.112903 20:0.270492 21:0.181818 22:0.047619 23:0.142857 24:0.0683761 
-1 1 1 1:0.0418385 2:0.0707181 3:0.0664015 4:0.189553 5:0.192661 6:0.0262643 7:0.0821294 8:0.067805 9:0.0488921 10:0.0811764 11:0.0828224 12:0.181739 13:0.11977 14:0.02962 15:0.08761 16:0.0800791 17:0.088 18:0.101266 19:0.0967742 20:0.155738 21:0.136364 22:0.031746 23:0.0952381 24:0.0769231 
-1 1 0 1:0.0359458 2:0.0872927 3:0.0939413 4:0.233782 5:0.137615 6:0.0203968 7:0.0703422 8:0.0683074 9:0.0499259 10:0.0731082 11:0.122864 12:0.272598 13:0.110514 14:0.0232381 15:0.0809019 16:0.0553043 17:0.088 18:0.101266 19:0.193548 20:0.385246 21:0.181818 22:0.0238095 23:0.103175 24:0.042735 
-1 1 1 1:0.0359458 2:0.100552 3:0.0712975 4:0.209351 5:0.185321 6:0.0187204 7:0.0954373 8:0.0798592 9:0.0548906 10:0.0929569 11:0.0870941 12:0.240301 13:0.116767 14:0.0315876 15:0.101276 16:0.0756319 17:0.056 18:0.151899 19:0.112903 20:0.229508 21:0.113636 22:0.0555556 23:0.0952381 24:0.0769231 
-1 1 1 1:0.0418385 2:0.0679559 3:0.0685434 4:0.186605 5:0.141284 6:0.0209557 7:0.0920154 8:0.071321 9:0.0660193 10:0.0559791 11:0.098991 12:0.199888 13:0.0869211 14:0.0290811 15:0.103671 16:0.0712004 17:0.104 18:0.0632911 19:0.129032 20:0.172131 21:0.0909091 22:0.0555556 23:0.134921 24:0.0769231 
-1 0 1 1:0.070713 2:0.101657 3:0.0737454 4:0.181129 5:0.108257 6:0.0217938 7:0.0866922 8:0.0768457 9:0.0923688 10:0.0825499 11:0.0860065 12:0.177559 13:0.117678 14:0.0278255 15:0.116496 16:0.0681631 17:0.112 18:0.113924 19:0.112903 20:0.237705 21:0.113636 22:0.0396825 23:0.150794 24:0.0598291 
-1 1 1 1:0.0553918 2:0.113812 3:0.0853733 4:0.175231 5:0.119266 6:0.0229114 7:0.111787 8:0.0828728 9:0.0588806 10:0.120702 11:0.0731994 12:0.146492 13:0.08572 14:0.0227034 15:0.139311 16:0.0821766 17:0.064 18:0.177215 19:0.0887097 20:0.147541 21:0.0909091 22:0.031746 23:0.18254 24:0.0769231 
-1 1 1 1:0.0654095 2:0.0955801 3:0.0844552 4:0.211457 5:0.198166 6:0.0284996 7:0.122814 8:0.109493 9:0.102197 10:0.116925 11:0.105847 12:0.263807 13:0.195221 14:0.0353283 15:0.164271 16:0.173577 17:0.144 18:0.151899 19:0.16129 20:0.311475 21:0.25 22:0.0555556 23:0.198413 24:0.196581 
-1 1 1 1:0.0595167 2:0.0817678 3:0.101897 4:0.235888 5:0.183487 6:0.0245879 7:0.0958177 8:0.0793571 9:0.073219 10:0.0765327 11:0.119635 12:0.27504 13:0.158542 14:0.0343845 15:0.147843 16:0.0916241 17:0.128 18:0.0886076 19:0.185484 20:0.311475 21:0.181818 22:0.047619 23:0.174603 24:0.0940171 
-1 1 1 1:0.0489098 2:0.10663 3:0.103733 4:0.22957 5:0.244037 6:0.0251467 7:0.123194 8:0.0773481 9:0.0571182 10:0.104825 11:0.132976 12:0.2637 13:0.254459 14:0.0359939 15:0.13721 16:0.101398 17:0.056 18:0.139241 19:0.233871 20:0.368852 21:0.318182 22:0.0634921 23:0.150794 24:0.111111 
-1 0 1 1:0.0686506 2:0.0928175 3:0.0954711 4:0.243472 5:0.121102 6:0.021235 7:0.104563 8:0.0873933 9:0.093266 10:0.0983941 11:0.103657 12:0.25172 13:0.145239 14:0.0283933 15:0.113504 16:0.0854004 17:0.12 18:0.151899 19:0.112903 20:0.221311 21:0.204545 22:0.0555556 23:0.119048 24:0.0854701 
-1 0 1 1:0.0577489 2:0.138674 3:0.0676255 4:0.174389 5:0.188991 6:0.0329701 7:0.111027 8:0.107986 9:0.0800309 10:0.120671 11:0.072026 12:0.186787 13:0.14232 14:0.0429617 15:0.155074 16:0.119315 17:0.096 18:0.164557 19:0.0967742 20:0.204918 21:0.159091 22:0.0714286 23:0.174603 24:0.145299 
-1 0 1 1:0.070713 2:0.0994473 3:0.0817014 4:0.222409 5:0.177982 6:0.0220733 7:0.106084 8:0.0813662 9:0.0792827 10:0.112056 11:0.112493 12:0.299478 13:0.137572 14:0.022296 15:0.142052 16:0.100324 17:0.136 18:0.240506 19:0.193548 20:0.360656 21:0.204545 22:0.0396825 23:0.15873 24:0.111111 
-1 0 1 1:0.06099 2:0.0922652 3:0.0734393 4:0.18829 5:0.152294 6:0.0195585 7:0.0984791 8:0.100452 9:0.0921971 10:0.0905108 11:0.0891093 12:0.239284 13:0.122635 14:0.0201091 15:0.144417 16:0.0879911 17:0.16 18:0.151899 19:0.153226 20:0.303279 21:0.159091 22:0.0238095 23:0.18254 24:0.0769231 
-1 1 0 1:0.0409547 2:0.0834254 3:0.0890453 4:0.200505 5:0.170642 6:0.0273819 7:0.108365 8:0.069312 9:0.0675048 10:0.0849759 11:0.138223 12:0.297646 13:0.150367 14:0.0303604 15:0.114739 16:0.0827833 17:0.088 18:0.139241 19:0.282258 20:0.483607 21:0.181818 22:0.0634921 23:0.111111 24:0.0940171 
-1 1 1 1:0.0441956 2:0.0955801 3:0.0667074 4:0.144903 5:0.130275 6:0.0223526 7:0.125856 8:0.0763436 9:0.0647052 10:0.104444 11:0.0914737 12:0.203917 13:0.0872582 14:0.0277992 15:0.157402 16:0.0833216 17:0.08 18:0.189873 19:0.137097 20:0.254098 21:0.0909091 22:0.0396825 23:0.206349 24:0.0940171 
-1 1 0.6450695524578728 1:0.0833825 2:0.125967 3:0.0850672 4:0.260321 5:0.194496 6:0.0268231 7:0.100761 8:0.0778502 9:0.116223 10:0.0978168 11:0.111857 12:0.285316 13:0.174527 14:0.0308009 15:0.133293 16:0.0860023 17:0.128 18:0.126582 19:0.185484 20:0.278689 21:0.181818 22:0.0396825 23:0.119048 24:0.0769231 
-1 1 1 1:0.0698291 2:0.138674 3:0.0988372 4:0.278432 5:0.225688 6:0.030176 7:0.144107 8:0.105977 9:0.103229 10:0.125867 11:0.13849 12:0.318848 13:0.187304 14:0.0389321 15:0.173027 16:0.11608 17:0.112 18:0.164557 19:0.209677 20:0.352459 21:0.204545 22:0.0555556 23:0.198413 24:0.128205 
-1 0 0 1:0.0400707 2:0.107182 3:0.0835373 4:0.223673 5:0.218349 6:0.0287791 7:0.0878328 8:0.0683074 9:0.0785473 10:0.119091 11:0.109375 12:0.283194 13:0.180692 14:0.0323486 15:0.1134 16:0.0644783 17:0.128 18:0.177215 19:0.169355 20:0.360656 21:0.204545 22:0.0396825 23:0.119048 24:0.0512821 
-1 1 1 1:0.0500883 2:0.109392 3:0.0783353 4:0.159225 5:0.133945 6:0.0164851 7:0.0927758 8:0.0944249 9:0.0694056 10:0.0811057 11:0.111967 12:0.232502 13:0.140507 14:0.0171662 15:0.0987516 16:0.0805858 17:0.08 18:0.113924 19:0.225806 20:0.311475 21:0.227273 22:0.031746 23:0.119048 24:0.0683761 
-1 0 1 1:0.047142 2:0.0900553 3:0.0660954 4:0.186183 5:0.155963 6:0.0206762 7:0.0870723 8:0.0803617 9:0.0609359 10:0.084136 11:0.0651662 12:0.199947 13:0.128986 14:0.0205253 15:0.0896231 16:0.0733792 17:0.056 18:0.126582 19:0.0967742 20:0.237705 21:0.159091 22:0.031746 23:0.0793651 24:0.0512821 
-1 0 1 1:0.0574544 2:0.0795579 3:0.0700735 4:0.168071 5:0.144954 6:0.0153675 7:0.1 8:0.0883978 9:0.0731836 10:0.0757787 11:0.0800935 12:0.197542 13:0.129961 14:0.0221766 15:0.125666 16:0.0869878 17:0.104 18:0.101266 19:0.104839 20:0.204918 21:0.159091 22:0.0238095 23:0.142857 24:0.0769231 
-1 1 1 1:0.0509724 2:0.0867404 3:0.0850672 4:0.203454 5:0.183487 6:0.0220733 7:0.0969582 8:0.0763436 9:0.0668817 10:0.0853557 11:0.100944 12:0.207084 13:0.13502 14:0.0238551 15:0.113155 16:0.068044 17:0.088 18:0.101266 19:0.201613 20:0.319672 21:0.181818 22:0.047619 23:0.126984 24:0.0598291 
-1 1 1 1:0.0362405 2:0.0845304 3:0.0703794 4:0.201769 5:0.122936 6:0.0167645 7:0.0859317 8:0.0582622 9:0.0591304 10:0.0657645 11:0.107727 12:0.236801 13:0.11868 14:0.0215175 15:0.113821 16:0.0811007 17:0.104 18:0.0886076 19:0.177419 20:0.344262 21:0.136364 22:0.0238095 23:0.126984 24:0.0769231 
-1 1 1 1:0.0530347 2:0.101105 3:0.0777233 4:0.179023 5:0.155963 6:0.0136911 7:0.098099 8:0.0632848 9:0.0550408 10:0.0833833 11:0.108886 12:0.225046 13:0.14713 14:0.0187777 15:0.103784 16:0.0712756 17:0.064 18:0.101266 19:0.145161 20:0.262295 21:0.159091 22:0.047619 23:0.0952381 24:0.0683761 
-1 0 1 1:0.0412492 2:0.105525 3:0.0572216 4:0.136478 5:0.137615 6:0.021235 7:0.103042 8:0.0758412 9:0.0712966 10:0.107523 11:0.0645345 12:0.179828 13:0.101967 14:0.0316222 15:0.109544 16:0.0745447 17:0.08 18:0.126582 19:0.0806452 20:0.196721 21:0.0909091 22:0.047619 23:0.134921 24:0.0769231 
-1 0 1 1:0.0459634 2:0.0961324 3:0.0706855 4:0.159646 5:0.108257 6:0.0176028 7:0.091635 8:0.0567553 9:0.0568431 10:0.0968423 11:0.0870462 12:0.199076 13:0.0941314 14:0.0175028 15:0.0954276 16:0.0592035 17:0.072 18:0.139241 19:0.112903 20:0.221311 21:0.113636 22:0.0238095 23:0.134921 24:0.0683761 
-1 1 1 1:0.048026 2:0.0756907 3:0.0584456 4:0.113311 5:0.0972477 6:0.0170439 7:0.091635 8:0.0637869 9:0.0618441 10:0.081143 11:0.0571151 12:0.112114 13:0.0925119 14:0.0173462 15:0.0874171 16:0.0684636 17:0.064 18:0.101266 19:0.0725806 20:0.131148 21:0.0909091 22:0.0396825 23:0.0793651 24:0.0598291 
-1 0 1 1:0.0518562 2:0.0950275 3:0.0706855 4:0.219882 5:0.165138 6:0.0229114 7:0.107985 8:0.0843797 9:0.0824573 10:0.102155 11:0.0725438 12:0.195655 13:0.147313 14:0.0230166 15:0.112888 16:0.101513 17:0.112 18:0.139241 19:0.0887097 20:0.188525 21:0.181818 22:0.031746 23:0.111111 24:0.0940171 
-1 1 1 1:0.0630524 2:0.110497 3:0.0541616 4:0.142797 5:0.14312 6:0.0220733 7:0.106084 8:0.100954 9:0.0821148 10:0.0893132 11:0.0664185 12:0.147711 13:0.103322 14:0.0279549 15:0.141822 16:0.122686 17:0.104 18:0.113924 19:0.137097 20:0.163934 21:0.113636 22:0.047619 23:0.166667 24:0.153846 
-1 0 1 1:0.0527402 2:0.0801105 3:0.0602816 4:0.166807 5:0.14679 6:0.0307348 7:0.144867 8:0.0979406 9:0.0651778 10:0.0630233 11:0.0707751 12:0.204802 13:0.132182 14:0.0422619 15:0.191317 16:0.111972 17:0.104 18:0.0759494 19:0.104839 20:0.237705 21:0.181818 22:0.0873016 23:0.253968 24:0.162393 
-1 1 1 1:0.0409547 2:0.0900553 3:0.0660954 4:0.193766 5:0.205505 6:0.0217938 7:0.0825096 8:0.046208 9:0.0486623 10:0.0720143 11:0.0854145 12:0.201605 13:0.172537 14:0.028662 15:0.108757 16:0.0468849 17:0.048 18:0.113924 19:0.104839 20:0.172131 21:0.204545 22:0.0396825 23:0.126984 24:0.042735 
-1 0.3332895691653082 1 1:0.0406599 2:0.107182 3:0.0572216 4:0.128475 5:0.121102 6:0.0159263 7:0.0851713 8:0.0688095 9:0.0475254 10:0.123042 11:0.0612139 12:0.144759 13:0.0739225 14:0.0214136 15:0.107193 16:0.0630571 17:0.056 18:0.151899 19:0.0887097 20:0.163934 21:0.0681818 22:0.0396825 23:0.103175 24:0.0598291 
-1 1 1 1:0.0335887 2:0.0712708 3:0.0774174 4:0.162595 5:0.0862385 6:0.0184409 7:0.104563 8:0.0753391 9:0.0383917 10:0.048058 11:0.105673 12:0.231698 13:0.0792926 14:0.021264 15:0.145151 16:0.0982236 17:0.04 18:0.0759494 19:0.153226 20:0.262295 21:0.0909091 22:0.0238095 23:0.198413 24:0.102564 
-1 0 1 1:0.0462582 2:0.0906076 3:0.0406977 4:0.170177 5:0.124771 6:0.0184409 7:0.0707226 8:0.0632848 9:0.0579825 10:0.0875075 11:0.0668753 12:0.216931 13:0.107945 14:0.0202762 15:0.0975612 16:0.0675956 17:0.064 18:0.164557 19:0.120968 20:0.278689 21:0.0909091 22:0.0396825 23:0.103175 24:0.0683761 
-1 1 1 1:0.0450796 2:0.0928175 3:0.0667074 4:0.153328 5:0.148624 6:0.0170439 7:0.093156 8:0.069312 9:0.0576929 10:0.092334 11:0.0809802 12:0.157431 13:0.109829 14:0.0177036 15:0.114877 16:0.0731948 17:0.064 18:0.0886076 19:0.112903 20:0.180328 21:0.113636 22:0.0238095 23:0.18254 24:0.0598291 
-1 1 1 1:0.0515616 2:0.151934 3:0.0786414 4:0.204296 5:0.137615 6:0.0159263 7:0.0988595 8:0.0622803 9:0.057321 10:0.0944254 11:0.103233 12:0.206788 13:0.106292 14:0.0245391 15:0.104 16:0.044249 17:0.056 18:0.139241 19:0.145161 20:0.204918 21:0.113636 22:0.047619 23:0.0952381 24:0.042735 
-1 0 1 1:0.0468474 2:0.113812 3:0.0627295 4:0.224515 5:0.20367 6:0.0231909 7:0.104943 8:0.0673029 9:0.0666208 10:0.0968423 11:0.0783446 12:0.202597 13:0.167122 14:0.028703 15:0.135334 16:0.0691073 17:0.08 18:0.151899 19:0.0887097 20:0.213115 21:0.181818 22:0.047619 23:0.142857 24:0.0512821 
-1 1 1 1:0.047142 2:0.0845304 3:0.0553856 4:0.146167 5:0.141284 6:0.0173233 7:0.110646 8:0.0763436 9:0.0623518 10:0.0852798 11:0.0823162 12:0.154282 13:0.110351 14:0.0276848 15:0.131948 16:0.0737836 17:0.072 18:0.113924 19:0.112903 20:0.180328 21:0.113636 22:0.047619 23:0.142857 24:0.0598291 
-1 0 0 1:0.0542133 2:0.120442 3:0.0826193 4:0.259898 5:0.170642 6:0.0265438 7:0.0923955 8:0.0642894 9:0.0737091 10:0.110824 11:0.123121 12:0.317982 13:0.176291 14:0.0383991 15:0.124351 16:0.0705389 17:0.112 18:0.189873 19:0.185484 20:0.352459 21:0.181818 22:0.0634921 23:0.126984 24:0.0598291 
-1 0 1 1:0.0951679 2:0.125967 3:0.0826193 4:0.269166 5:0.227524 6:0.0268231 7:0.109506 8:0.108488 9:0.127521 10:0.128147 11:0.0849163 12:0.223815 13:0.17112 14:0.0348776 15:0.148914 16:0.147573 17:0.192 18:0.177215 19:0.104839 20:0.237705 21:0.159091 22:0.047619 23:0.166667 24:0.136752 
-0.7129556573325762 0 0 1:0.0810254 2:0.127624 3:0.0792534 4:0.274221 5:0.188991 6:0.0248674 7:0.1327 8:0.118031 9:0.120611 10:0.123904 11:0.103773 12:0.363561 13:0.140534 14:0.0339633 15:0.229008 16:0.143012 17:0.184 18:0.164557 19:0.16129 20:0.459016 21:0.136364 22:0.0555556 23:0.309524 24:0.179487 
-1 1 0 1:0.066588 2:0.0972374 3:0.0921053 4:0.221988 5:0.188991 6:0.030176 7:0.106844 8:0.0894023 9:0.0797349 10:0.0872987 11:0.130433 12:0.323083 13:0.156106 14:0.0252339 15:0.146334 16:0.106416 17:0.104 18:0.126582 19:0.193548 20:0.393443 21:0.204545 22:0.0396825 23:0.15873 24:0.119658 
-1 1 0 1:0.041544 2:0.114365 3:0.0911872 4:0.28391 5:0.229358 6:0.0215145 7:0.104563 8:0.0888999 9:0.0492346 10:0.0905399 11:0.154384 12:0.438214 13:0.240877 14:0.0247838 15:0.115028 16:0.0746265 17:0.064 18:0.126582 19:0.33871 20:0.696721 21:0.409091 22:0.047619 23:0.103175 24:0.0683761 
-1 1 1 1:0.0883912 2:0.169613 3:0.0893512 4:0.22957 5:0.26789 6:0.030176 7:0.107985 8:0.0924159 9:0.129699 10:0.122895 11:0.108235 12:0.241288 13:0.145458 14:0.029764 15:0.132204 16:0.0818348 17:0.192 18:0.177215 19:0.185484 20:0.270492 21:0.159091 22:0.031746 23:0.126984 24:0.0769231 
-1 0 0 1:0.111373 2:0.18453 3:0.0936352 4:0.293596 5:0.234863 6:0.0346465 7:0.141445 8:0.144651 9:0.136024 10:0.144063 11:0.0990561 12:0.320892 13:0.17156 14:0.0427003 15:0.177668 16:0.141256 17:0.168 18:0.21519 19:0.120968 20:0.377049 21:0.181818 22:0.047619 23:0.15873 24:0.119658 
-0 1 0 1:0.338538 2:0.232044 3:0.150245 4:0.343303 5:0.310092 6:0.0368818 7:0.192776 8:0.256655 9:0.411936 10:0.220699 11:0.238097 12:0.482854 13:0.227001 14:0.0383575 15:0.208448 16:0.258704 17:0.4 18:0.240506 19:0.41129 20:0.565574 21:0.272727 22:0.0396825 23:0.206349 24:0.247863 
-0 1 0 1:0.74337 2:0.317127 3:0.386782 4:0.89722 5:0.649542 6:0.0977926 7:0.447908 8:0.716726 9:0.886332 10:0.394737 11:0.482954 12:0.990565 13:0.51817 14:0.12441 15:0.480107 16:0.699661 17:0.904 18:0.405063 19:0.766129 20:0.967213 21:0.545455 22:0.134921 23:0.626984 24:0.709402 
-0 0.5529914556160832 0 1:0.656746 2:0.457458 3:0.372094 4:0.81171 5:0.622018 6:0.0899692 7:0.460076 8:0.707182 9:0.826236 10:0.430832 11:0.490719 12:0.905135 13:0.555538 14:0.105842 15:0.450378 16:0.594048 17:0.984 18:0.594937 19:0.669355 20:0.844262 21:0.545455 22:0.126984 23:0.373016 24:0.435897 
-0 1 0 1:0.527106 2:0.274585 3:0.205324 4:0.532855 5:0.400001 6:0.0670578 7:0.384412 8:0.486188 9:0.629381 10:0.261727 11:0.261093 12:0.503207 13:0.423452 14:0.0931125 15:0.529113 16:0.574382 17:0.744 18:0.379747 19:0.548387 20:0.459016 21:0.477273 22:0.166667 23:0.571429 24:0.641026 
-0 0.7817843700768536 1 1:0.336477 2:0.233149 3:0.138923 4:0.285595 5:0.220184 6:0.0435876 7:0.328138 8:0.364639 9:0.424945 10:0.233547 11:0.185014 12:0.317182 13:0.239976 14:0.0869795 15:0.41401 16:0.478363 17:0.52 18:0.303797 19:0.274194 20:0.245902 21:0.295455 22:0.18254 23:0.492063 24:0.598291 
-0 0 1 1:0.285209 2:0.227072 3:0.134333 4:0.261583 5:0.172478 6:0.0430288 7:0.324714 8:0.331993 9:0.430686 10:0.287203 11:0.147627 12:0.304859 13:0.170973 14:0.0783446 15:0.41576 16:0.398125 17:0.472 18:0.455696 19:0.177419 20:0.245902 21:0.181818 22:0.134921 23:0.444444 24:0.307692 
-0 0 1 1:0.258693 2:0.171823 3:0.101591 4:0.221567 5:0.188991 6:0.0402347 7:0.259315 8:0.288799 9:0.387827 10:0.1438 11:0.112057 12:0.199744 13:0.130432 14:0.0566238 15:0.296256 16:0.284228 17:0.408 18:0.189873 19:0.129032 20:0.180328 21:0.136364 22:0.0555556 23:0.388889 24:0.230769 
-0.5820140875458363 0 0 1:0.230996 2:0.123204 3:0.0682375 4:0.182814 5:0.155963 6:0.0226321 7:0.141445 8:0.200401 9:0.301612 10:0.145296 11:0.0678812 12:0.218757 13:0.102616 14:0.0314407 15:0.15847 16:0.204766 17:0.424 18:0.177215 19:0.0967742 20:0.303279 21:0.113636 22:0.0555556 23:0.142857 24:0.179487 
-1 0 0 1:0.197996 2:0.139779 3:0.0590576 4:0.200927 5:0.13945 6:0.0178821 7:0.120913 8:0.148167 9:0.345542 10:0.118606 11:0.0690798 12:0.233306 13:0.117105 14:0.0198258 15:0.143988 16:0.177164 17:0.544 18:0.189873 19:0.0967742 20:0.188525 21:0.113636 22:0.031746 23:0.15873 24:0.196581 
-1 0 1 1:0.195051 2:0.143094 3:0.0697674 4:0.111626 5:0.137615 6:0.0134116 7:0.130418 8:0.134606 9:0.268139 10:0.144877 11:0.084801 12:0.133333 13:0.103059 14:0.0147947 15:0.15444 16:0.159321 17:0.312 18:0.189873 19:0.137097 20:0.180328 21:0.0681818 22:0.0238095 23:0.206349 24:0.196581 
-1 0 0 1:0.230701 2:0.197237 3:0.0838432 4:0.238838 5:0.165138 6:0.0231909 7:0.143726 8:0.180814 9:0.299649 10:0.185439 11:0.105933 12:0.247715 13:0.118485 14:0.0255646 15:0.176387 16:0.160922 17:0.344 18:0.278481 19:0.169355 20:0.262295 21:0.181818 22:0.031746 23:0.166667 24:0.153846 
-1 0 1 1:0.220979 2:0.216574 3:0.0804774 4:0.141112 5:0.0752294 6:0.0178821 7:0.140304 8:0.17127 9:0.342158 10:0.175116 11:0.0988937 12:0.167966 13:0.0860208 14:0.0217993 15:0.171263 16:0.167698 17:0.352 18:0.291139 19:0.120968 20:0.204918 21:0.0909091 22:0.0396825 23:0.174603 24:0.145299 
-0 0 1 1:0.24779 2:0.187845 3:0.0648714 4:0.101516 5:0.100917 6:0.0178821 7:0.14981 8:0.194374 9:0.383827 10:0.147871 11:0.0868517 12:0.107625 13:0.0836317 14:0.0181043 15:0.186708 16:0.243455 17:0.512 18:0.177215 19:0.120968 20:0.106557 21:0.159091 22:0.031746 23:0.222222 24:0.282051 
-1 0 1 1:0.213908 2:0.207182 3:0.0832313 4:0.173968 5:0.122936 6:0.0181616 7:0.119772 8:0.16675 9:0.276727 10:0.265805 11:0.0987421 12:0.252554 13:0.11868 14:0.0299138 15:0.163436 16:0.179932 17:0.28 18:0.392405 19:0.120968 20:0.295082 21:0.136364 22:0.0634921 23:0.206349 24:0.162393 
-0 0 1 1:0.24013 2:0.150829 3:0.0752753 4:0.145324 5:0.141284 6:0.0257055 7:0.150951 8:0.207433 9:0.31971 10:0.19481 11:0.0766281 12:0.200126 13:0.10719 14:0.0424849 15:0.229531 16:0.302638 17:0.408 18:0.278481 19:0.104839 20:0.221311 21:0.136364 22:0.0793651 23:0.293651 24:0.333333 
-0 0 1 1:0.218032 2:0.154144 3:0.0761934 4:0.156276 5:0.121102 6:0.0203968 7:0.171103 8:0.205424 9:0.310424 10:0.127695 11:0.0768002 12:0.175057 13:0.0602497 14:0.0304166 15:0.227423 16:0.26746 17:0.36 18:0.164557 19:0.0887097 20:0.172131 21:0.0909091 22:0.0714286 23:0.333333 24:0.316239 
-1 0 0 1:0.221567 2:0.162431 3:0.0712975 4:0.118787 5:0.126606 6:0.0234702 7:0.158555 8:0.191361 9:0.32306 10:0.170319 11:0.0909766 12:0.183072 13:0.0811283 14:0.0259709 15:0.187237 16:0.204754 17:0.392 18:0.227848 19:0.137097 20:0.286885 21:0.0909091 22:0.0396825 23:0.190476 24:0.188034 
-1 0 1 1:0.241897 2:0.135359 3:0.0465116 4:0.101938 5:0.119266 6:0.0220733 7:0.156654 8:0.210447 9:0.324396 10:0.168129 11:0.0551907 12:0.117592 13:0.0881146 14:0.0309475 15:0.211631 16:0.287665 17:0.456 18:0.278481 19:0.0645161 20:0.147541 21:0.0681818 22:0.0555556 23:0.190476 24:0.222222 
-1 0 1 1:0.223336 2:0.18453 3:0.0798654 4:0.126369 5:0.13578 6:0.0237497 7:0.162738 8:0.193872 9:0.323996 10:0.166659 11:0.0930349 12:0.15245 13:0.115207 14:0.0280775 15:0.162478 16:0.196747 17:0.464 18:0.189873 19:0.16129 20:0.155738 21:0.113636 22:0.0396825 23:0.134921 24:0.17094 
-1 0 1 1:0.228933 2:0.125967 3:0.0578336 4:0.121735 5:0.106423 6:0.015088 7:0.124335 8:0.178804 9:0.326014 10:0.140479 11:0.0469679 12:0.126202 13:0.0813907 14:0.0171577 15:0.18418 16:0.221625 17:0.392 18:0.21519 19:0.0887097 20:0.139344 21:0.0909091 22:0.031746 23:0.198413 24:0.205128 
-1 0 1 1:0.203005 2:0.164641 3:0.0639535 4:0.166807 5:0.115596 6:0.0254262 7:0.152091 8:0.198895 9:0.294068 10:0.177867 11:0.0720495 12:0.164203 13:0.111165 14:0.0283216 15:0.188445 16:0.194411 17:0.384 18:0.189873 19:0.120968 20:0.122951 21:0.136364 22:0.0396825 23:0.206349 24:0.196581 
-1 0 1 1:0.250147 2:0.149724 3:0.0633415 4:0.143218 5:0.0917437 6:0.0187204 7:0.157034 8:0.215469 9:0.343103 10:0.123927 11:0.0874706 12:0.148525 13:0.0682735 14:0.0283565 15:0.169294 16:0.222607 17:0.416 18:0.164557 19:0.145161 20:0.180328 21:0.0681818 22:0.0396825 23:0.18254 24:0.230769 
-0 0 1 1:0.272245 2:0.150276 3:0.0627295 4:0.181129 5:0.0954134 6:0.0181616 7:0.155513 8:0.180814 9:0.311661 10:0.178252 11:0.0714894 12:0.180575 13:0.0832397 14:0.0223355 15:0.213388 16:0.228223 17:0.352 18:0.253165 19:0.112903 20:0.155738 21:0.0909091 22:0.031746 23:0.31746 24:0.222222 
-1 0 0 1:0.295228 2:0.172928 3:0.0569155 4:0.135636 5:0.0825688 6:0.0176028 7:0.15019 8:0.180311 9:0.417311 10:0.162322 11:0.0746677 12:0.165362 13:0.0705111 14:0.0189071 15:0.166405 16:0.203895 17:0.504 18:0.227848 19:0.145161 20:0.180328 21:0.0909091 22:0.031746 23:0.206349 24:0.145299 
-0 0 1 1:0.275781 2:0.148619 3:0.0697674 4:0.132687 5:0.108257 6:0.0243085 7:0.160456 8:0.217478 9:0.306843 10:0.149203 11:0.0608135 12:0.172203 13:0.0733603 14:0.0404124 15:0.19098 16:0.257608 17:0.376 18:0.21519 19:0.0887097 20:0.229508 21:0.0909091 22:0.0793651 23:0.261905 24:0.290598 
-0 0 1 1:0.175016 2:0.177348 3:0.0673194 4:0.122157 5:0.0899083 6:0.0245879 7:0.197719 8:0.225514 9:0.260828 10:0.202429 11:0.0875907 12:0.173434 13:0.0898878 14:0.0336367 15:0.217215 16:0.262808 17:0.376 18:0.265823 19:0.112903 20:0.262295 21:0.0909091 22:0.0714286 23:0.277778 24:0.25641 
-1 0 1 1:0.206246 2:0.187845 3:0.0673194 4:0.160067 5:0.0770648 6:0.0189997 7:0.152091 8:0.187845 9:0.281204 10:0.169333 11:0.0990407 12:0.240418 13:0.0734328 14:0.0196994 15:0.167874 16:0.186247 17:0.28 18:0.265823 19:0.209677 20:0.270492 21:0.0909091 22:0.047619 23:0.166667 24:0.196581 
-1 0 1 1:0.181497 2:0.156353 3:0.0676255 4:0.169756 5:0.093578 6:0.0145292 7:0.150951 8:0.169764 9:0.234564 10:0.140467 11:0.0853753 12:0.201251 13:0.0720461 14:0.0176173 15:0.205961 16:0.196981 17:0.256 18:0.202532 19:0.104839 20:0.237705 21:0.0909091 22:0.031746 23:0.277778 24:0.247863 
-0 0 1 1:0.207719 2:0.158563 3:0.0737454 4:0.174389 5:0.115596 6:0.0192792 7:0.147148 8:0.180814 9:0.271674 10:0.161254 11:0.0683968 12:0.198973 13:0.110123 14:0.0249708 15:0.199576 16:0.227989 17:0.36 18:0.189873 19:0.0806452 20:0.204918 21:0.136364 22:0.0396825 23:0.261905 24:0.25641 
-0 1 0 1:0.83235 2:0.527073 3:0.334455 4:0.728728 5:0.561468 6:0.0799106 7:0.455133 8:0.674031 9:0.9023 10:0.468901 11:0.513801 12:0.840657 13:0.626768 14:0.114804 15:0.668386 16:0.871834 17:0.992 18:0.582278 19:0.814516 20:0.819672 21:0.772727 22:0.15873 23:0.626984 24:0.726496 
-0 0 1 1:0.20271 2:0.187845 3:0.0930232 4:0.245157 5:0.209175 6:0.0388377 7:0.271864 8:0.274736 9:0.277248 10:0.194506 11:0.101796 12:0.253681 13:0.133287 14:0.0516369 15:0.420835 16:0.361168 17:0.392 18:0.202532 19:0.129032 20:0.221311 21:0.159091 22:0.0634921 23:0.404762 24:0.393162 
-0 1 0 1:0.184444 2:0.198895 3:0.161261 4:0.363942 5:0.190826 6:0.0287791 7:0.217871 8:0.214465 9:0.225825 10:0.155232 11:0.226223 12:0.429981 13:0.175347 14:0.0415729 15:0.247396 16:0.202145 17:0.208 18:0.202532 19:0.346774 20:0.532787 21:0.159091 22:0.0714286 23:0.31746 24:0.205128 
-0 1 0 1:0.281379 2:0.162983 3:0.134333 4:0.28728 5:0.212845 6:0.0366025 7:0.203422 8:0.207433 9:0.310058 10:0.126107 11:0.19546 12:0.36988 13:0.151616 14:0.041805 15:0.241684 16:0.232342 17:0.368 18:0.151899 19:0.370968 20:0.467213 21:0.159091 22:0.0555556 23:0.253968 24:0.196581 
-0 0 1 1:0.169711 2:0.211602 3:0.0973071 4:0.258636 5:0.117432 6:0.0326908 7:0.225475 8:0.221496 9:0.224094 10:0.213975 11:0.109991 12:0.273917 13:0.0873976 14:0.0354858 15:0.248655 16:0.239342 17:0.296 18:0.316456 19:0.16129 20:0.278689 21:0.0909091 22:0.0634921 23:0.277778 24:0.230769 
-0 0 1 1:0.262816 2:0.209944 3:0.0875152 4:0.203033 5:0.122936 6:0.030176 7:0.257415 8:0.258161 9:0.312916 10:0.166865 11:0.0813986 12:0.219695 13:0.12937 14:0.0349083 15:0.386735 16:0.329801 17:0.384 18:0.189873 19:0.120968 20:0.311475 21:0.159091 22:0.047619 23:0.388889 24:0.324786 
-1 0 1 1:0.224515 2:0.181768 3:0.116891 4:0.250632 5:0.155963 6:0.0290584 7:0.160456 8:0.180814 9:0.22069 10:0.180162 11:0.113788 12:0.250344 13:0.11009 14:0.0275171 15:0.221121 16:0.235488 17:0.24 18:0.291139 19:0.145161 20:0.262295 21:0.113636 22:0.0396825 23:0.206349 24:0.179487 
-0 1 1 1:0.24455 2:0.132044 3:0.148715 4:0.284331 5:0.249542 6:0.0676166 7:0.344486 8:0.337519 9:0.410296 10:0.118952 11:0.245426 12:0.371296 13:0.340034 14:0.157214 15:0.567849 16:0.602028 17:0.48 18:0.164557 19:0.443548 20:0.483607 21:0.477273 22:0.293651 23:0.674603 24:0.74359 
-0 1 0 1:0.21538 2:0.18011 3:0.158201 4:0.313395 5:0.201835 6:0.0354848 7:0.284411 8:0.257157 9:0.369018 10:0.214239 11:0.221688 12:0.451376 13:0.195087 14:0.0458843 15:0.373985 16:0.329256 17:0.504 18:0.291139 19:0.443548 20:0.540984 21:0.227273 22:0.0555556 23:0.492063 24:0.384615 
-0 0 1 1:0.228933 2:0.178453 3:0.112913 4:0.2738 5:0.211009 6:0.0388377 7:0.293157 8:0.266198 9:0.308089 10:0.16782 11:0.111068 12:0.299942 13:0.123611 14:0.0570839 15:0.438835 16:0.419048 17:0.352 18:0.227848 19:0.153226 20:0.336066 21:0.136364 22:0.126984 23:0.547619 24:0.504274 
-0 0 1 1:0.231586 2:0.165193 3:0.101591 4:0.228728 5:0.229358 6:0.045264 7:0.260836 8:0.23556 9:0.289625 10:0.172652 11:0.117115 12:0.24216 13:0.169281 14:0.0549029 15:0.316196 16:0.287989 17:0.328 18:0.21519 19:0.153226 20:0.245902 21:0.159091 22:0.0873016 23:0.365079 24:0.307692 
-0 0.3963698812930821 1 1:0.254567 2:0.179558 3:0.135557 4:0.272957 5:0.205505 6:0.045264 7:0.285171 8:0.311402 9:0.318605 10:0.20028 11:0.154762 12:0.258096 13:0.170187 14:0.0664563 15:0.330197 16:0.310251 17:0.376 18:0.278481 19:0.258065 20:0.270492 21:0.159091 22:0.126984 23:0.349206 24:0.307692 
-0 0 1 1:0.197996 2:0.18674 3:0.105263 4:0.227885 5:0.168808 6:0.0483376 7:0.291254 8:0.354093 9:0.311769 10:0.185126 11:0.134546 12:0.297227 13:0.103254 14:0.0571714 15:0.33436 16:0.401568 17:0.392 18:0.291139 19:0.177419 20:0.377049 21:0.0681818 22:0.0873016 23:0.420635 24:0.358974 
-0 1 0 1:0.312906 2:0.185635 3:0.124235 4:0.335299 5:0.244037 6:0.0486169 7:0.336502 8:0.375189 9:0.372929 10:0.211529 11:0.224939 12:0.365199 13:0.252111 14:0.075484 15:0.356736 16:0.396351 17:0.392 18:0.291139 19:0.475806 20:0.483607 21:0.340909 22:0.0952381 23:0.436508 24:0.376068 
-0 0 1 1:0.278728 2:0.147514 3:0.0966951 4:0.229149 5:0.19633 6:0.0474993 7:0.306846 8:0.346057 9:0.289047 10:0.159074 11:0.116021 12:0.237341 13:0.13862 14:0.0583828 15:0.372062 16:0.437422 17:0.368 18:0.164557 19:0.145161 20:0.213115 21:0.159091 22:0.0873016 23:0.507937 24:0.495726 
-0 0 1 1:0.244254 2:0.208839 3:0.109547 4:0.257372 5:0.183487 6:0.0419111 7:0.290495 8:0.338021 9:0.314236 10:0.20407 11:0.129803 12:0.262115 13:0.165065 14:0.0498677 15:0.359747 16:0.328311 17:0.472 18:0.316456 19:0.217742 20:0.254098 21:0.159091 22:0.0793651 23:0.380952 24:0.350427 
-0 0 1 1:0.215675 2:0.1779 3:0.112607 4:0.268746 5:0.27523 6:0.0539257 7:0.384412 8:0.427926 9:0.334694 10:0.189574 11:0.121624 12:0.302821 13:0.184989 14:0.063488 15:0.450916 16:0.510523 17:0.368 18:0.341772 19:0.153226 20:0.418033 21:0.25 22:0.0793651 23:0.47619 24:0.418803 
-0 0 1 1:0.258396 2:0.243093 3:0.145349 4:0.300759 5:0.260551 6:0.0653814 7:0.458555 8:0.532396 9:0.336195 10:0.242627 11:0.120698 12:0.30976 13:0.227096 14:0.0792346 15:0.499724 16:0.568115 17:0.336 18:0.303797 19:0.137097 20:0.270492 21:0.272727 22:0.103175 23:0.619048 24:0.564103 
-0 0 1 1:0.275781 2:0.200552 3:0.131273 4:0.282225 5:0.277064 6:0.0765577 7:0.442207 8:0.509795 9:0.392792 10:0.193755 11:0.165193 12:0.328223 13:0.237679 14:0.133263 15:0.613062 16:0.714625 17:0.432 18:0.240506 19:0.274194 20:0.47541 21:0.227273 22:0.214286 23:0.650794 24:0.692308 
-0 0 1 1:0.24013 2:0.192265 3:0.0930232 4:0.213985 5:0.190826 6:0.0368818 7:0.262357 8:0.318936 9:0.356865 10:0.15467 11:0.123223 12:0.222805 13:0.138726 14:0.0545924 15:0.333271 16:0.362994 17:0.48 18:0.227848 19:0.169355 20:0.213115 21:0.136364 22:0.0634921 23:0.325397 24:0.307692 
-0 0 1 1:0.348851 2:0.17348 3:0.113525 4:0.176074 5:0.20367 6:0.0653814 7:0.375666 8:0.423908 9:0.401444 10:0.180964 11:0.088104 12:0.195841 13:0.174967 14:0.0746305 15:0.448799 16:0.511293 17:0.56 18:0.278481 19:0.120968 20:0.229508 21:0.136364 22:0.0873016 23:0.5 24:0.487179 
-1 0 0 1:0.219504 2:0.112707 3:0.0859853 4:0.216512 5:0.177982 6:0.0201173 7:0.119011 8:0.13109 9:0.335586 10:0.112654 11:0.0905249 12:0.202986 13:0.116514 14:0.023685 15:0.132319 16:0.138426 17:0.464 18:0.139241 19:0.104839 20:0.196721 21:0.113636 22:0.0396825 23:0.150794 24:0.153846 
-1 0 0 1:0.192398 2:0.0922652 3:0.0942472 4:0.219039 5:0.2 6:0.0195585 7:0.0908746 8:0.125063 9:0.267178 10:0.117684 11:0.141566 12:0.303581 13:0.198706 14:0.0220695 15:0.126271 16:0.148658 17:0.36 18:0.227848 19:0.274194 20:0.368852 21:0.204545 22:0.031746 23:0.142857 24:0.153846 
-1 0 0 1:0.252504 2:0.116575 3:0.0780294 4:0.17818 5:0.161468 6:0.0229114 7:0.134601 8:0.145655 9:0.349481 10:0.0939726 11:0.0847337 12:0.221343 13:0.088736 14:0.0315487 15:0.147198 16:0.164515 17:0.408 18:0.139241 19:0.0967742 20:0.262295 21:0.113636 22:0.0396825 23:0.18254 24:0.145299 
-1 0 0 1:0.23571 2:0.10663 3:0.0624234 4:0.166807 5:0.110092 6:0.019838 7:0.126236 8:0.14013 9:0.344807 10:0.120329 11:0.0597818 12:0.162962 13:0.11836 14:0.0203049 15:0.158613 16:0.16334 17:0.52 18:0.177215 19:0.0645161 20:0.139344 21:0.136364 22:0.0396825 23:0.166667 24:0.119658 
-1 0 0 1:0.222746 2:0.0828728 3:0.0532435 4:0.141112 5:0.113762 6:0.0156468 7:0.113308 8:0.128076 9:0.411102 10:0.0885393 11:0.0728888 12:0.113629 13:0.098644 14:0.0217993 15:0.127367 16:0.153996 17:0.576 18:0.164557 19:0.112903 20:0.106557 21:0.136364 22:0.0396825 23:0.126984 24:0.119658 
-1 0 1 1:0.190041 2:0.0944751 3:0.0526315 4:0.131002 5:0.0788991 6:0.0120146 7:0.117871 8:0.119538 9:0.266589 10:0.108663 11:0.0651999 12:0.17007 13:0.0759548 14:0.0163456 15:0.150238 16:0.154236 17:0.376 18:0.164557 19:0.0725806 20:0.172131 21:0.0681818 22:0.031746 23:0.198413 24:0.17094 
-0 0 1 1:0.200353 2:0.0906076 3:0.0758873 4:0.169334 5:0.13578 6:0.0195585 7:0.156274 8:0.201406 9:0.278545 10:0.083385 11:0.0824849 12:0.162935 13:0.0936197 14:0.021101 15:0.217399 16:0.283798 17:0.328 18:0.101266 19:0.0967742 20:0.147541 21:0.0909091 22:0.031746 23:0.222222 24:0.307692 
-1 0 0 1:0.283146 2:0.128177 3:0.0914933 4:0.215248 5:0.13945 6:0.0176028 7:0.11711 8:0.145655 9:0.400614 10:0.102502 11:0.115478 12:0.219804 13:0.142591 14:0.0182114 15:0.150688 16:0.139746 17:0.464 18:0.139241 19:0.169355 20:0.221311 21:0.204545 22:0.031746 23:0.18254 24:0.119658 
-1 0 0 1:0.181791 2:0.0773479 3:0.0697674 4:0.190396 5:0.119266 6:0.0178821 7:0.123574 8:0.144651 9:0.276694 10:0.0803886 11:0.100794 12:0.190108 13:0.0916423 14:0.0224371 15:0.173091 16:0.218856 17:0.392 18:0.126582 19:0.153226 20:0.221311 21:0.136364 22:0.0396825 23:0.230159 24:0.25641 
-1 0 0 1:0.253682 2:0.116022 3:0.0630354 4:0.179865 5:0.148624 6:0.0206762 7:0.0988595 8:0.12456 9:0.360428 10:0.116109 11:0.0896238 12:0.212503 13:0.0990359 14:0.0211826 15:0.116018 16:0.160962 17:0.488 18:0.189873 19:0.177419 20:0.270492 21:0.0909091 22:0.0238095 23:0.119048 24:0.153846 
-1 0 0 1:0.193576 2:0.0900553 3:0.0553856 4:0.125948 5:0.106423 6:0.0114558 7:0.103802 8:0.109995 9:0.283352 10:0.0754969 11:0.0839053 12:0.175542 13:0.0967511 14:0.0214946 15:0.138015 16:0.137405 17:0.28 18:0.0886076 19:0.16129 20:0.221311 21:0.136364 22:0.0396825 23:0.119048 24:0.128205 
-1 0 1 1:0.196524 2:0.0696131 3:0.0532435 4:0.133108 5:0.108257 6:0.0173233 7:0.122053 8:0.141135 9:0.283361 10:0.0658661 11:0.0741297 12:0.131879 13:0.103059 14:0.0271173 15:0.129918 16:0.167794 17:0.28 18:0.0759494 19:0.137097 20:0.147541 21:0.113636 22:0.047619 23:0.134921 24:0.153846 
-1 0 0 1:0.218032 2:0.108287 3:0.0639535 4:0.143639 5:0.104587 6:0.0184409 7:0.128517 8:0.172275 9:0.333789 10:0.082891 11:0.0695003 12:0.168288 13:0.0913503 14:0.0247015 15:0.184751 16:0.202925 17:0.408 18:0.0886076 19:0.104839 20:0.213115 21:0.0909091 22:0.0396825 23:0.230159 24:0.213675 
-1 0 0 1:0.223336 2:0.127072 3:0.0807833 4:0.200084 5:0.163303 6:0.0156468 7:0.11711 8:0.139126 9:0.276377 10:0.101265 11:0.118612 12:0.26201 13:0.160631 14:0.0233763 15:0.149265 16:0.176821 17:0.328 18:0.113924 19:0.25 20:0.319672 21:0.159091 22:0.031746 23:0.150794 24:0.128205 
-1 0 1 1:0.237773 2:0.100552 3:0.0605875 4:0.175653 5:0.137615 6:0.0184409 7:0.130418 8:0.163737 9:0.331931 10:0.0786935 11:0.06757 12:0.145833 13:0.10087 14:0.0306268 15:0.191567 16:0.228945 17:0.32 18:0.151899 19:0.104839 20:0.139344 21:0.113636 22:0.047619 23:0.285714 24:0.273504 
-1 0 1 1:0.20654 2:0.112707 3:0.0630354 4:0.169334 5:0.0899083 6:0.021235 7:0.123955 8:0.14666 9:0.26951 10:0.0919602 11:0.0595354 12:0.150494 13:0.0643747 14:0.0278343 15:0.214029 16:0.252598 17:0.384 18:0.151899 19:0.0645161 20:0.155738 21:0.0681818 22:0.0396825 23:0.238095 24:0.282051 
-1 0 0 1:0.238067 2:0.104972 3:0.0584456 4:0.150379 5:0.126606 6:0.0195585 7:0.114829 8:0.173279 9:0.351244 10:0.0956156 11:0.0600175 12:0.167329 13:0.0976393 14:0.0285927 15:0.136111 16:0.203026 17:0.416 18:0.113924 19:0.0645161 20:0.139344 21:0.0909091 22:0.0396825 23:0.142857 24:0.213675 
-1 0 0 1:0.224809 2:0.117127 3:0.0740513 4:0.177759 5:0.108257 6:0.0170439 7:0.128897 8:0.166248 9:0.332688 10:0.103219 11:0.0828162 12:0.186723 13:0.083479 14:0.0248587 15:0.165228 16:0.171163 17:0.36 18:0.126582 19:0.112903 20:0.163934 21:0.0909091 22:0.0396825 23:0.214286 24:0.179487 
-1 0 0 1:0.256039 2:0.11326 3:0.0520195 4:0.163437 5:0.137615 6:0.0164851 7:0.104563 8:0.142642 9:0.330322 10:0.101579 11:0.0747904 12:0.202207 13:0.112589 14:0.0264775 15:0.0996939 16:0.124474 17:0.36 18:0.139241 19:0.112903 20:0.221311 21:0.113636 22:0.0396825 23:0.111111 24:0.119658 
-1 0 0 1:0.212139 2:0.101105 3:0.0507955 4:0.116681 5:0.126606 6:0.0122939 7:0.0977187 8:0.121547 9:0.316356 10:0.0893996 11:0.0808788 12:0.127922 13:0.0998693 14:0.0140653 15:0.131154 16:0.153917 17:0.464 18:0.139241 19:0.129032 20:0.139344 21:0.113636 22:0.0238095 23:0.166667 24:0.188034 
-1 0 0 1:0.233943 2:0.143646 3:0.0495716 4:0.132687 5:0.104587 6:0.0181616 7:0.13308 8:0.165243 9:0.337315 10:0.109441 11:0.0650185 12:0.152827 13:0.085418 14:0.0277091 15:0.183171 16:0.174561 17:0.528 18:0.126582 19:0.137097 20:0.229508 21:0.0909091 22:0.0396825 23:0.18254 24:0.145299 
-1 0 0 1:0.198881 2:0.098895 3:0.0480417 4:0.131002 5:0.111927 6:0.00949986 7:0.0946769 8:0.127574 9:0.335383 10:0.0965558 11:0.0660596 12:0.12385 13:0.0956641 14:0.00997925 15:0.120634 16:0.165204 17:0.48 18:0.164557 19:0.137097 20:0.131148 21:0.113636 22:0.015873 23:0.142857 24:0.153846 
-1 0 0 1:0.195345 2:0.0867404 3:0.0743574 4:0.176495 5:0.0697254 6:0.0134116 7:0.137262 8:0.157207 9:0.292788 10:0.0801494 11:0.0995083 12:0.207005 13:0.0523807 14:0.0283585 15:0.177062 16:0.200811 17:0.432 18:0.0886076 19:0.120968 20:0.303279 21:0.0454545 22:0.0396825 23:0.174603 24:0.17094 
-1 0 0 1:0.199765 2:0.0806628 3:0.0477356 4:0.103201 5:0.111927 6:0.0173233 7:0.134601 8:0.150176 9:0.320405 10:0.070242 11:0.0719127 12:0.144187 13:0.106659 14:0.0216688 15:0.153533 16:0.169654 17:0.416 18:0.101266 19:0.145161 20:0.196721 21:0.113636 22:0.0238095 23:0.190476 24:0.17094 
-1 0 0 1:0.195933 2:0.102762 3:0.0706855 4:0.186605 5:0.100917 6:0.0153675 7:0.102662 8:0.127072 9:0.287339 10:0.0957836 11:0.0914598 12:0.190466 13:0.0976745 14:0.0188641 15:0.120227 16:0.166316 17:0.344 18:0.139241 19:0.0967742 20:0.188525 21:0.113636 22:0.031746 23:0.126984 24:0.179487 
-1 0 0 1:0.244254 2:0.0994473 3:0.0590576 4:0.17818 5:0.111927 6:0.0187204 7:0.136882 8:0.167755 9:0.314682 10:0.0891661 11:0.0655148 12:0.177946 13:0.0898878 14:0.0269452 15:0.189858 16:0.191444 17:0.328 18:0.139241 19:0.0967742 20:0.180328 21:0.113636 22:0.0396825 23:0.246032 24:0.153846 
-1 0 0 1:0.191515 2:0.10221 3:0.0605875 4:0.141112 5:0.132111 6:0.0173233 7:0.107225 8:0.129081 9:0.280325 10:0.108062 11:0.0951305 12:0.184588 13:0.127103 14:0.0168861 15:0.13847 16:0.138987 17:0.352 18:0.151899 19:0.217742 20:0.254098 21:0.204545 22:0.031746 23:0.134921 24:0.128205 
-1 0 0 1:0.238657 2:0.0878453 3:0.0630354 4:0.187868 5:0.152294 6:0.0153675 7:0.107605 8:0.133601 9:0.346838 10:0.090365 11:0.0661777 12:0.167175 13:0.0986527 14:0.015246 15:0.160676 16:0.184465 17:0.392 18:0.101266 19:0.0887097 20:0.180328 21:0.113636 22:0.0238095 23:0.230159 24:0.213675 
-1 0 0 1:0.210372 2:0.0883976 3:0.0740513 4:0.152064 5:0.104587 6:0.0100587 7:0.104563 8:0.123556 9:0.307018 10:0.0860984 11:0.0864008 12:0.171716 13:0.0767168 14:0.0207009 15:0.136354 16:0.155199 17:0.376 18:0.139241 19:0.120968 20:0.147541 21:0.0909091 22:0.031746 23:0.150794 24:0.119658 
-1 0 0 1:0.189746 2:0.0933702 3:0.0596696 4:0.167649 5:0.121102 6:0.00977935 7:0.0863118 8:0.0904068 9:0.276202 10:0.0970415 11:0.0691607 12:0.198117 13:0.101343 14:0.0145989 15:0.104492 16:0.117929 17:0.312 18:0.126582 19:0.0967742 20:0.204918 21:0.0909091 22:0.015873 23:0.119048 24:0.162393 
-1 0 1 1:0.195933 2:0.111602 3:0.0581395 4:0.147852 5:0.0807345 6:0.0122939 7:0.136882 8:0.142139 9:0.261282 10:0.111125 11:0.0706166 12:0.173612 13:0.0679342 14:0.0144563 15:0.146542 16:0.175699 17:0.344 18:0.177215 19:0.0967742 20:0.147541 21:0.0681818 22:0.0238095 23:0.126984 24:0.196581 
-1 0 0 1:0.164702 2:0.0944751 3:0.0587515 4:0.146588 5:0.108257 6:0.0111763 7:0.121673 8:0.141637 9:0.278853 10:0.0794188 11:0.0609197 12:0.199422 13:0.110514 14:0.0194875 15:0.155665 16:0.203721 17:0.464 18:0.139241 19:0.0887097 20:0.286885 21:0.113636 22:0.031746 23:0.214286 24:0.222222 
-1 0 0 1:0.185622 2:0.0839778 3:0.0712975 4:0.173968 5:0.0807345 6:0.0106175 7:0.1 8:0.129583 9:0.264246 10:0.0696959 11:0.0982887 12:0.195306 13:0.0929006 14:0.00975564 15:0.124511 16:0.132542 17:0.368 18:0.0759494 19:0.185484 20:0.245902 21:0.136364 22:0.0238095 23:0.142857 24:0.111111 
-1 0 0 1:0.201238 2:0.101657 3:0.0642594 4:0.18155 5:0.137615 6:0.021235 7:0.125475 8:0.158714 9:0.262155 10:0.110175 11:0.0651537 12:0.208149 13:0.123611 14:0.0234149 15:0.174745 16:0.211126 17:0.288 18:0.126582 19:0.0887097 20:0.213115 21:0.136364 22:0.047619 23:0.166667 24:0.17094 
-1 0 0.3313353617410753 1:0.224809 2:0.112155 3:0.0514075 4:0.145324 5:0.113762 6:0.015088 7:0.130418 8:0.143646 9:0.276847 10:0.0918864 11:0.0681568 12:0.177176 13:0.087099 14:0.0231726 15:0.164094 16:0.175987 17:0.288 18:0.101266 19:0.0806452 20:0.204918 21:0.0909091 22:0.0396825 23:0.174603 24:0.145299 
-1 0 1 1:0.283146 2:0.156353 3:0.102509 4:0.192502 5:0.126606 6:0.0254262 7:0.178707 8:0.186841 9:0.294908 10:0.13588 11:0.111097 12:0.194826 13:0.0919322 14:0.0360594 15:0.193109 16:0.195971 17:0.344 18:0.151899 19:0.137097 20:0.180328 21:0.113636 22:0.0555556 23:0.206349 24:0.188034 
-1 0 1 1:0.268121 2:0.131491 3:0.0902693 4:0.178601 5:0.0844043 6:0.0201173 7:0.187072 8:0.191863 9:0.307403 10:0.144556 11:0.111653 12:0.207556 13:0.0806913 14:0.0217993 15:0.214209 16:0.190932 17:0.336 18:0.177215 19:0.185484 20:0.180328 21:0.113636 22:0.031746 23:0.269841 24:0.188034 
-0 0 1 1:0.263995 2:0.138121 3:0.0841493 4:0.179865 5:0.179817 6:0.0251467 7:0.244868 8:0.208438 9:0.378759 10:0.126125 11:0.115247 12:0.195781 13:0.11861 14:0.0378866 15:0.363705 16:0.3175 17:0.424 18:0.151899 19:0.129032 20:0.155738 21:0.136364 22:0.0555556 23:0.460317 24:0.384615 
-1 0 0 1:0.204183 2:0.130387 3:0.0774174 4:0.171862 5:0.100917 6:0.0304555 7:0.196578 8:0.15118 9:0.296194 10:0.11025 11:0.107737 12:0.219219 13:0.103195 14:0.0377757 15:0.227734 16:0.174912 17:0.416 18:0.164557 19:0.153226 20:0.213115 21:0.136364 22:0.0714286 23:0.238095 24:0.136752 
-1 -1 1 1:0.017089 2:0.0961324 3:0.488065 4:0.154591 5:0.225688 6:0.0382789 7:0.063118 8:0.125063 9:0.0178453 10:0.0790139 11:0.581964 12:0.153198 13:0.167421 14:0.0666454 15:0.0946282 16:0.108734 17:0.016 18:0.0886076 19:0.620968 20:0.196721 21:0.136364 22:0.0952381 23:0.150794 24:0.0940171 
-1 -1 1 1:0.0188568 2:0.0883976 3:0.59088 4:0.14027 5:0.176147 6:0.0310143 7:0.0634981 8:0.139628 9:0.0184465 10:0.104091 11:0.56797 12:0.113384 13:0.0879938 14:0.0411611 15:0.0767096 16:0.16868 17:0.024 18:0.113924 19:0.66129 20:0.122951 21:0.113636 22:0.0555556 23:0.0714286 24:0.196581 
-1 -0.02823094079574958 0 1:0.0156159 2:0.10221 3:0.468481 4:0.175231 5:0.225688 6:0.0402347 7:0.101521 8:0.120542 9:0.0194671 10:0.104536 11:0.62501 12:0.200303 13:0.249693 14:0.0568 15:0.120662 16:0.154574 17:0.024 18:0.139241 19:0.822581 20:0.286885 21:0.363636 22:0.103175 23:0.15873 24:0.136752 
-1 -0 1 1:0.0209193 2:0.66906 3:0.547124 4:0.13016 5:0.207339 6:0.0346465 7:0.09962 8:0.153692 9:0.0291602 10:0.599897 11:0.731158 12:0.158302 13:0.161245 14:0.0424849 15:0.153674 16:0.171655 17:0.024 18:0.746835 19:0.798387 20:0.180328 21:0.181818 22:0.047619 23:0.238095 24:0.17094 
-1 -1 1 1:0.0123748 2:0.233701 3:0.388311 4:0.129318 5:0.181651 6:0.0293379 7:0.0825096 8:0.139628 9:0.015783 10:0.346694 11:0.493791 12:0.153969 13:0.189501 14:0.0454222 15:0.084877 16:0.172898 17:0.016 18:0.443038 19:0.580645 20:0.245902 21:0.295455 22:0.0634921 23:0.103175 24:0.162393 
-1 -0 0 1:0.0167944 2:0.0845304 3:0.606181 4:0.13016 5:0.216514 6:0.021235 7:0.0904945 8:0.146157 9:0.0224614 10:0.0840596 11:0.635898 12:0.120779 13:0.150387 14:0.0269832 15:0.0971751 16:0.127181 17:0.032 18:0.126582 19:0.798387 20:0.131148 21:0.136364 22:0.031746 23:0.126984 24:0.145299 
-1 -0 0 1:0.017089 2:0.0834254 3:0.614749 4:0.14406 5:0.211009 6:0.0324113 7:0.0825096 8:0.137619 9:0.0226792 10:0.089282 11:0.621081 12:0.117653 13:0.158496 14:0.0362412 15:0.131707 16:0.186343 17:0.04 18:0.126582 19:0.717742 20:0.139344 21:0.181818 22:0.047619 23:0.166667 24:0.17094 
-1 -1 1 1:0.0212139 2:0.0961324 3:0.527846 4:0.138585 5:0.183487 6:0.0282203 7:0.0783272 8:0.128579 9:0.021906 10:0.110773 11:0.570983 12:0.152745 13:0.156047 14:0.0245203 15:0.135932 16:0.193322 17:0.024 18:0.164557 19:0.701613 20:0.180328 21:0.227273 22:0.031746 23:0.238095 24:0.213675 
-1 -0 0 1:0.0159104 2:0.118784 3:0.511015 4:0.117944 5:0.2 6:0.0203968 7:0.0574145 8:0.133099 9:0.0234094 10:0.0835066 11:0.62894 12:0.143871 13:0.181234 14:0.0285128 15:0.0702476 16:0.177059 17:0.024 18:0.139241 19:0.83871 20:0.131148 21:0.25 22:0.0555556 23:0.0793651 24:0.145299 
-1 -1 1 1:0.0215086 2:0.0933702 3:0.502447 4:0.101938 5:0.106423 6:0.0315731 7:0.0536122 8:0.123556 9:0.0233564 10:0.0784747 11:0.60753 12:0.0988828 13:0.105548 14:0.0384278 15:0.0715064 16:0.1303 17:0.048 18:0.0886076 19:0.604839 20:0.114754 21:0.113636 22:0.0555556 23:0.0793651 24:0.111111 
-1 -1 1 1:0.0144373 2:0.0933702 3:0.52907 4:0.145324 5:0.187157 6:0.0262643 7:0.0574145 8:0.157207 9:0.0277805 10:0.10011 11:0.598258 12:0.162836 13:0.166717 14:0.032262 15:0.0777612 16:0.180679 17:0.032 18:0.139241 19:0.66129 20:0.204918 21:0.181818 22:0.0396825 23:0.0714286 24:0.153846 
-0 -0 1 1:0.0220979 2:0.122652 3:0.65055 4:0.221567 5:0.295413 6:0.0645432 7:0.150571 8:0.143144 9:0.0178084 10:0.0949419 11:0.709453 12:0.179427 13:0.204975 14:0.0805663 15:0.309503 16:0.212229 17:0.016 18:0.101266 19:0.717742 20:0.188525 21:0.204545 22:0.0952381 23:0.452381 24:0.222222 
-1 -0 0 1:0.0191515 2:0.118232 3:0.618421 4:0.109941 5:0.198166 6:0.0307348 7:0.0752853 8:0.174284 9:0.0168128 10:0.100726 11:0.710055 12:0.100809 13:0.171315 14:0.0452238 15:0.0580677 16:0.187142 17:0.016 18:0.151899 19:0.75 20:0.0901639 21:0.181818 22:0.0714286 23:0.0555556 24:0.153846 
-1 -0 1 1:0.0150266 2:0.076243 3:0.511321 4:0.112047 5:0.137615 6:0.0257055 7:0.0745249 8:0.147664 9:0.0230128 10:0.0639019 11:0.552926 12:0.115016 13:0.104144 14:0.0373092 15:0.0935073 16:0.18176 17:0.024 18:0.0886076 19:0.782258 20:0.114754 21:0.113636 22:0.0634921 23:0.0952381 24:0.162393 
-1 -0 1 1:0.0173837 2:0.0790056 3:0.445533 4:0.0796125 5:0.141284 6:0.0254262 7:0.0623576 8:0.125565 9:0.0198609 10:0.0843352 11:0.537081 12:0.111507 13:0.103975 14:0.040231 15:0.0754445 16:0.18209 17:0.024 18:0.113924 19:0.830645 20:0.147541 21:0.136364 22:0.0714286 23:0.0952381 24:0.179487 
-1 -1 1 1:0.0156159 2:0.0823205 3:0.47552 4:0.120893 5:0.192661 6:0.0290584 7:0.0418252 8:0.106479 9:0.0250776 10:0.0684527 11:0.556858 12:0.136138 13:0.162671 14:0.0372796 15:0.0654261 16:0.124056 17:0.032 18:0.0886076 19:0.66129 20:0.155738 21:0.227273 22:0.0396825 23:0.0873016 24:0.102564 
-1 -0 0 1:0.0226872 2:0.140331 3:0.48776 4:0.162173 5:0.185321 6:0.0223526 7:0.0513308 8:0.145655 9:0.0336775 10:0.111875 11:0.651814 12:0.182948 13:0.157746 14:0.033385 15:0.0940038 16:0.183635 17:0.04 18:0.151899 19:0.846774 20:0.221311 21:0.159091 22:0.0714286 23:0.142857 24:0.205128 
-1 -1 0 1:0.00942839 2:0.0779006 3:0.499388 4:0.152485 5:0.187157 6:0.025985 7:0.0490495 8:0.0888999 9:0.0180847 10:0.0802128 11:0.654594 12:0.160746 13:0.159418 14:0.0380663 15:0.0686436 16:0.0895614 17:0.032 18:0.139241 19:0.733871 20:0.172131 21:0.159091 22:0.0634921 23:0.0952381 24:0.0854701 
-1 -1 0 1:0.0176782 2:0.10221 3:0.52295 4:0.148273 5:0.163303 6:0.021235 7:0.028137 8:0.106981 9:0.0179481 10:0.107857 11:0.60445 12:0.155541 13:0.15981 14:0.0305685 15:0.039606 16:0.135156 17:0.016 18:0.164557 19:0.733871 20:0.196721 21:0.181818 22:0.047619 23:0.0634921 24:0.111111 
-1 -0 0 1:0.0200353 2:0.105525 3:0.519889 4:0.117944 5:0.229358 6:0.0254262 7:0.0387834 8:0.092918 9:0.0216141 10:0.0914103 11:0.598567 12:0.125537 13:0.252258 14:0.025454 15:0.0398973 16:0.108734 17:0.024 18:0.113924 19:0.766129 20:0.106557 21:0.318182 22:0.0396825 23:0.0396825 24:0.136752 
-1 -0 0 1:0.0176782 2:0.0834254 3:0.52142 4:0.136057 5:0.27156 6:0.0284996 7:0.0448671 8:0.0944249 9:0.0250022 10:0.0707655 11:0.620914 12:0.134609 13:0.251056 14:0.0260347 15:0.0609302 16:0.0957708 17:0.024 18:0.101266 19:0.798387 20:0.114754 21:0.295455 22:0.0396825 23:0.0634921 24:0.0769231 
-0.5181372205186283 -0 0 1:0.0114909 2:0.0900553 3:0.652998 4:0.111626 5:0.174312 6:0.0248674 7:0.0353612 8:0.0999496 9:0.0177398 10:0.0641102 11:0.724475 12:0.117741 13:0.120297 14:0.0255831 15:0.0413727 16:0.1024 17:0.024 18:0.0886076 19:0.943548 20:0.172131 21:0.0909091 22:0.031746 23:0.0634921 24:0.0940171 
-1 -1 1 1:0.0147319 2:0.117127 3:0.415544 4:0.101095 5:0.245872 6:0.0284996 7:0.0361217 8:0.0894023 9:0.0200701 10:0.104695 11:0.521673 12:0.0989046 13:0.194998 14:0.0406717 15:0.0415519 16:0.126702 17:0.024 18:0.177215 19:0.653226 20:0.0983607 21:0.204545 22:0.0555556 23:0.0396825 24:0.136752 
-1 -0 0 1:0.0173837 2:0.0961324 3:0.50459 4:0.103201 5:0.148624 6:0.0248674 7:0.0425857 8:0.112004 9:0.0177167 10:0.100348 11:0.696405 12:0.116001 13:0.152075 14:0.0255831 15:0.0623385 16:0.124063 17:0.016 18:0.139241 19:0.854839 20:0.114754 21:0.227273 22:0.0238095 23:0.0555556 24:0.0940171 
-1 -1 1 1:0.0173837 2:0.0828728 3:0.422888 4:0.0977252 5:0.148624 6:0.0335289 7:0.11711 8:0.137619 9:0.0180819 10:0.0885393 11:0.561273 12:0.0993225 13:0.147781 14:0.0384442 15:0.170769 16:0.151014 17:0.016 18:0.113924 19:0.733871 20:0.0901639 21:0.227273 22:0.0555556 23:0.198413 24:0.111111 
-1 -0 0 1:0.013848 2:0.109392 3:0.537638 4:0.130581 5:0.198166 6:0.0257055 7:0.0539925 8:0.143646 9:0.0151371 10:0.0960071 11:0.608606 12:0.129973 13:0.157609 14:0.0321411 15:0.0589843 16:0.160575 17:0.024 18:0.139241 19:0.782258 20:0.139344 21:0.159091 22:0.0634921 23:0.0793651 24:0.153846 
-1 -0 1 1:0.017089 2:0.0707181 3:0.471237 4:0.0901431 5:0.174312 6:0.0243085 7:0.0391635 8:0.12004 9:0.0210135 10:0.0684375 11:0.585513 12:0.107087 13:0.179558 14:0.0288236 15:0.0591697 16:0.148058 17:0.024 18:0.0886076 19:0.766129 20:0.0901639 21:0.227273 22:0.0396825 23:0.0793651 24:0.162393 
-1 -1 0 1:0.0185622 2:0.0817678 3:0.425949 4:0.157961 5:0.286239 6:0.0234702 7:0.0467681 8:0.0974385 9:0.0310951 10:0.0599023 11:0.639859 12:0.204608 13:0.249799 14:0.040845 15:0.0598707 16:0.11499 17:0.064 18:0.0886076 19:0.782258 20:0.229508 21:0.272727 22:0.0873016 23:0.0714286 24:0.111111 
-1 -0 0.08339212721785366 1:0.017973 2:0.0618783 3:0.393818 4:0.120051 5:0.258716 6:0.0265438 7:0.0368822 8:0.134606 9:0.0174407 10:0.0542736 11:0.583946 12:0.153631 13:0.18048 14:0.0417643 15:0.0488233 16:0.152316 17:0.016 18:0.0759494 19:0.846774 20:0.163934 21:0.181818 22:0.0714286 23:0.0634921 24:0.145299 
-1 -1 1 1:0.0206246 2:0.074033 3:0.357711 4:0.118366 5:0.181651 6:0.0237497 7:0.0437263 8:0.114515 9:0.0229238 10:0.0795877 11:0.465689 12:0.119057 13:0.165021 14:0.0336346 15:0.0584035 16:0.161289 17:0.024 18:0.126582 19:0.58871 20:0.147541 21:0.159091 22:0.0396825 23:0.0952381 24:0.145299 
-1 -1 0 1:0.0185622 2:0.0900553 3:0.410648 4:0.124263 5:0.27156 6:0.0262643 7:0.0486694 8:0.0979406 9:0.0270763 10:0.0821592 11:0.59962 12:0.180516 13:0.207348 14:0.0392669 15:0.0617156 16:0.131556 17:0.016 18:0.164557 19:0.806452 20:0.237705 21:0.272727 22:0.0634921 23:0.0714286 24:0.128205 
-1 -1 1 1:0.0173837 2:0.0806628 3:0.298347 4:0.0779276 5:0.152294 6:0.0268231 7:0.0433462 8:0.11552 9:0.0232152 10:0.0753754 11:0.395124 12:0.0882102 13:0.141317 14:0.0315897 15:0.0514686 16:0.126133 17:0.032 18:0.101266 19:0.508065 20:0.114754 21:0.159091 22:0.047619 23:0.0714286 24:0.119658 
-1 -1 1 1:0.0147319 2:0.0674032 3:0.285496 4:0.0880371 5:0.190826 6:0.0307348 7:0.0456275 8:0.123054 9:0.0207581 10:0.0488294 11:0.350604 12:0.116366 13:0.158593 14:0.039153 15:0.0479047 16:0.130503 17:0.024 18:0.0886076 19:0.435484 20:0.122951 21:0.204545 22:0.047619 23:0.047619 24:0.17094 
-1 -1 1 1:0.0156159 2:0.0701658 3:0.321603 4:0.0619209 5:0.209175 6:0.0248674 7:0.0296579 8:0.092918 9:0.0205095 10:0.056039 11:0.415946 12:0.0706032 13:0.157817 14:0.0311454 15:0.0409342 16:0.104737 17:0.024 18:0.0632911 19:0.548387 20:0.0737705 21:0.136364 22:0.047619 23:0.0634921 24:0.102564 
-1 -1 1 1:0.0215086 2:0.0834254 3:0.300795 4:0.0644482 5:0.152294 6:0.0226321 7:0.0342207 8:0.100954 9:0.0264757 10:0.0740202 11:0.319692 12:0.0853836 13:0.148349 14:0.0276385 15:0.0401485 16:0.106083 17:0.032 18:0.126582 19:0.540323 20:0.114754 21:0.136364 22:0.031746 23:0.0634921 24:0.0940171 
-1 -1 1 1:0.0156159 2:0.10221 3:0.255815 4:0.0775062 5:0.212845 6:0.0237497 7:0.0425857 8:0.110999 9:0.0201649 10:0.0763347 11:0.31551 12:0.0972195 13:0.166468 14:0.05227 15:0.0537705 16:0.171187 17:0.032 18:0.101266 19:0.451613 20:0.106557 21:0.159091 22:0.0873016 23:0.0793651 24:0.205128 
-1 -1 1 1:0.0109017 2:0.0767956 3:0.295593 4:0.0703454 5:0.166972 6:0.0282203 7:0.0414449 8:0.107986 9:0.0162703 10:0.0573238 11:0.40769 12:0.0721132 13:0.12937 14:0.0447356 15:0.0583812 16:0.150213 17:0.024 18:0.0632911 19:0.580645 20:0.0737705 21:0.136364 22:0.0714286 23:0.0714286 24:0.162393 
-1 -1 1 1:0.0185622 2:0.0939225 3:0.395042 4:0.0968828 5:0.181651 6:0.0268231 7:0.046388 8:0.094927 9:0.0230331 10:0.0667989 11:0.499421 12:0.116356 13:0.159321 14:0.0245982 15:0.0478362 16:0.122363 17:0.024 18:0.101266 19:0.709677 20:0.131148 21:0.159091 22:0.0396825 23:0.047619 24:0.145299 
-1 -1 1 1:0.0209193 2:0.074033 3:0.353121 4:0.080455 5:0.198166 6:0.0257055 7:0.0368822 8:0.0989451 9:0.0249804 10:0.0680764 11:0.380945 12:0.084919 13:0.18205 14:0.0375436 15:0.05173 16:0.142513 17:0.032 18:0.101266 19:0.475806 20:0.0983607 21:0.181818 22:0.0555556 23:0.0634921 24:0.17094 
-0 -0 1 1:0.0406599 2:0.144751 3:0.549265 4:0.172704 5:0.233028 6:0.056161 7:0.151711 8:0.279256 9:0.0652587 10:0.136895 11:0.661757 12:0.18841 13:0.182571 14:0.0762543 15:0.206052 16:0.43754 17:0.072 18:0.189873 19:0.709677 20:0.180328 21:0.25 22:0.0873016 23:0.261905 24:0.538462 
-0 -0 1 1:0.0574544 2:0.170165 3:0.789474 4:0.246842 5:0.289909 6:0.119028 7:0.509507 8:0.427926 9:0.0847935 10:0.175449 11:0.713434 12:0.351462 13:0.373386 14:0.171075 15:0.659704 16:0.569859 17:0.112 18:0.316456 19:0.830645 20:0.418033 21:0.5 22:0.253968 23:0.674603 24:0.547009 
-0 -1 0 1:0.0492045 2:0.141436 3:0.629131 4:0.224937 5:0.288073 6:0.0720871 7:0.181749 8:0.324459 9:0.072627 10:0.186401 11:0.608964 12:0.345565 13:0.344517 14:0.109344 15:0.294636 16:0.516898 17:0.104 18:0.35443 19:0.66129 20:0.47541 21:0.431818 22:0.15873 23:0.365079 24:0.65812 
